,0,1,2,3,4,5,6,7,8,9,10,11,12,13,14,15,16,17,18,19,20,21,22,23,24,25,26,27,28,29,30,31,32,33,34,35,36,37,38,39,40,41,42,43,44,45,46,47,48,49,50,51,52,53,54,55,56,57,58,59,60,61,62,63,64,65,66,67,68,69,70,71,72,73,74,75,76,77,78,79,80,81,82,83,84,85,86,87,88,89,90,91,92,93,94,95,96,97,98,99,100,101,102,103,104,105,106,107,108,109,110,111,112,113,114,115,116,117,118,119,120,121,122,123,124,125,126,127,128,129,130,131,132,133,134,135,136,137,138,139,140,141,142,143,144,145,146,147,148,149,150,151,152,153,154,155,156,157,158,159,160,161,162,163,164,165,166,167,168,169,170,171,172,173,174,175,176,177,178,179,180,181,182,183,184,185,186,187,188,189,190,191,192,193,194,195,196,197
drug_0,0.018808702,0.11554992,-0.23313625,0.020451305,-0.076620296,0.18074083,-0.14354317,0.40681425,-0.017840791,-0.13335754,-0.13429566,-0.10235865,0.076501995,0.2852322,0.39821598,-0.2114595,-0.21091521,0.1703944,0.13830315,0.22384018,-0.18873744,-0.16747732,-0.17339456,0.046047565,0.26751664,-0.43548802,-0.033162266,0.17016844,-0.15194511,-0.03096392,-0.35477594,-0.5148118,0.3695625,0.351425,-0.03357693,-0.516404,-0.050797306,-0.28116903,-0.015337057,0.08883459,-0.15835829,0.5935311,0.405975,0.08196882,-0.37883776,-0.10591186,0.3737647,0.15358755,0.39402777,0.0051872167,-0.22778425,0.119028375,-0.04443963,-0.063691646,0.35185683,0.08441724,0.19526185,0.034454744,0.20493887,0.16958755,0.37495267,0.1158624,0.2937033,-0.18826091,-0.06474151,0.032200392,0.06474966,0.4070004,-0.26897454,-0.091049515,0.18335679,0.06349418,-0.2682865,0.07732894,0.37205353,0.41915038,-0.29967663,-0.04278206,-0.082402475,-0.20886518,-0.13234948,-0.07213288,-0.17957097,0.25006512,0.03696899,-0.22634442,-0.19894184,-0.22699219,0.2971206,-0.1378965,-0.13752432,0.411462,0.000632146,0.13891645,-0.016117848,0.10007768,0.13258499,-0.09197526,0.17108706,-0.27024993,-0.32416284,-0.018199362,-0.151842,0.14926471,-0.050765272,0.20782116,-0.081111446,-0.083428144,-0.24415483,0.021205118,0.030073537,0.15558973,-0.06704722,0.056986008,0.046049144,-0.56077963,-0.35658678,-0.27204832,-0.15370515,0.26794416,0.34807497,0.118302666,0.42612123,-0.23073234,0.07483905,-0.28514263,-0.28073537,0.13471852,0.12286495,0.42560515,0.09906199,-0.038153287,0.009630578,0.13090107,0.21117862,-0.22427072,-0.056400858,-0.3065437,-0.0034911775,0.08105724,0.057881095,0.030464115,-0.09153847,-0.117361695,-0.080458626,-0.28730768,-0.24042764,0.14653674,0.10369121,-0.08650469,0.033730432,-0.062237557,-0.44167906,-0.25622433,0.054811966,-0.057333652,-0.13078922,0.003212693,-0.13120253,-0.07459797,-0.18720703,0.21150593,0.44326928,0.029115684,0.0053981794,0.03946636,-0.13793133,-0.12775686,-0.06877312,-0.3393061,-0.11396546,0.36794454,-0.06359932,-0.32707587,0.1115125,-0.06767402,0.20957947,-0.016294286,0.16163301,-0.1989531,-0.012743917,0.46339226,-0.2362629,-0.15415062,-0.35013616,0.05433364,-0.1270112,-0.022174556,-0.27094197,-0.235631,0.04977609,0.028337076,0.12622128,-0.037372325,-0.16411439,0.0244823,-0.24488765,0.0663649
drug_1,0.13434121,-0.050262168,-0.32088223,-0.0073655425,0.30866387,-0.16008344,-0.053268295,0.20440926,0.031092448,-0.25177553,-0.18338612,-0.19539471,-0.05578488,-0.0066930945,0.2603606,-0.078620195,0.2325907,0.6218781,0.23213667,0.09352087,0.13049132,0.24307272,-0.5767569,0.26452255,-0.06446997,-0.2505574,0.22844191,0.39160964,-0.12859829,0.39946687,0.12425892,-0.005685711,-0.32640138,0.38639325,0.18274865,-0.19926709,-0.24308395,0.17500257,0.26326028,-0.0754646,0.0076403753,0.23054807,0.4611478,-0.3158774,-0.355106,0.41338852,-0.29592228,-0.4047254,0.0083357,-0.14512992,0.14131108,0.6805895,-0.74277055,-0.48969328,0.7369105,0.35464856,-0.23563981,0.20797515,0.087047696,0.34227678,0.50120145,-0.22727022,0.831745,-0.6303814,-0.21707533,-0.056322712,-0.089614086,0.063564405,0.17712823,0.54833305,0.23443952,0.2035396,-0.6068075,0.14898857,0.6809436,-0.28238177,-0.41720846,0.19320531,0.5038171,0.37107226,-0.18774027,-0.045442794,-0.12104222,-0.30201596,-0.30241436,-0.4706987,-0.24498029,0.025165778,0.2667633,0.001602003,0.27553013,-0.010504641,0.2448701,0.40052477,-0.0018498163,0.36026973,0.29138377,-0.2171519,-0.22640607,0.06384756,-0.10991289,0.03468099,0.041288946,0.72830254,-0.049003154,0.41206858,-0.09722177,-0.013686898,-0.5680429,0.18033569,0.06872822,0.377209,-0.49324203,0.621946,0.45603102,-0.76391524,0.28524762,-0.2957989,0.006314572,0.07161182,-0.2890601,0.5440176,0.14194927,-0.4320543,-0.5278325,-0.10728507,-0.34949586,0.39593634,0.042239144,0.37843856,-0.5332888,-0.14337763,-0.38128608,0.09897092,-0.7617684,-0.163171,-0.37144944,-0.27154884,-0.48219597,-0.10275425,0.4064138,0.50752765,-0.22761019,-0.436084,0.45961702,-0.86117154,-0.62216127,-0.36551654,0.19844142,0.16725501,0.10094109,-0.41022825,-0.858351,-0.009634526,0.58917975,-0.22107652,0.20094061,-0.23813812,-0.8253312,-0.18564595,-0.30304986,0.066245385,0.396254,0.12571628,-0.42565313,-0.39242235,-0.70483214,0.14460383,-0.07736468,-0.6516634,-0.22092775,0.005760861,0.26340437,-0.09736643,0.24183804,-0.46558538,-0.375245,0.16031678,-0.44693092,0.06856315,-0.15625308,0.83784306,-0.26110625,-0.2515563,-0.13264154,-0.013747302,0.23339817,0.05355956,-0.36307243,-0.12139509,0.11151342,0.07758627,-0.18868525,0.13102251,-0.2755546,0.13641675,0.24782571,0.43367115
drug_2,-0.4066093,0.13110644,-0.5134424,-0.07369434,0.15853795,-0.0063811964,0.17625146,0.27785218,-0.09116104,-0.091923386,-0.12221321,-0.39356568,0.11850052,-0.18759188,-0.17089255,-0.19819836,-0.14346504,0.20925416,-0.24256234,0.15158059,-0.091006495,-0.41774374,-0.35818636,0.1689952,0.37956837,-0.38755324,0.2826271,0.17456998,-0.2629072,-0.34281233,0.19779707,0.10516014,0.14752683,0.39129692,-0.22774805,-0.48249185,-0.016344354,-0.3414329,0.13287266,0.061158665,0.11026964,0.40023887,0.1444147,-0.26811063,-0.009463848,-0.26382455,-0.1807921,-0.24241291,-0.22762494,-0.12380348,-0.058523208,0.79434603,-0.30598676,-0.506999,0.7283167,0.2590279,-0.03789672,0.036615465,-0.27528346,0.2842133,0.3375485,-0.06729716,0.8209255,-0.651025,-0.17515542,-0.36905968,0.07287843,0.039941583,-0.11943976,0.49449837,0.21525918,-0.04094282,-0.57042783,0.31251755,0.008568345,0.011461147,-0.2424357,0.32505688,0.40278006,0.31060803,-0.059712764,-0.14605185,0.06780385,-0.46509,-0.23641889,0.18346062,-0.6497765,0.17820808,-0.15953204,-0.05785516,0.097149126,-0.12900382,0.5096063,0.5541797,0.3647374,0.23223647,-0.14550382,0.020513885,0.4205192,0.5575141,-0.4654131,0.028576992,0.4367537,0.25492728,-0.08001922,-0.052350845,-0.05920204,0.07026858,-0.026091235,0.011731569,0.013274803,0.18380359,-0.66371787,0.09125866,0.77292234,-0.44872582,0.11192005,0.0662574,0.30439368,-0.13371336,-0.1237654,-0.05596891,0.31546545,-0.39244092,0.21699825,-0.22991641,-0.53483427,0.73419917,-0.082094125,-0.00972225,0.26671398,-0.5392611,0.016495965,0.36673996,-0.18450342,-0.50933516,-0.11915601,-0.5202086,-0.30658904,-0.18118781,-0.076323554,0.13644423,-0.2021214,-0.58314925,0.3696344,-0.83350706,-0.56661326,-0.25776547,0.45076483,-0.24234323,0.080106005,-0.5627635,-0.7121598,0.13921267,0.50905293,-0.19337314,0.004997779,-0.61703396,0.06993173,-0.22657895,-0.124799296,0.7295393,0.4406113,0.08850288,-0.44126296,-0.5899524,-0.699812,-0.21181473,0.09279221,-0.3537119,0.055764105,0.3165331,0.14548214,-0.24854736,0.3635655,-0.3200622,0.21445099,-0.07329303,-0.1055599,-0.35222545,-0.038855378,0.31481078,0.01146757,-0.4968733,-0.4087454,-0.17705885,0.06620256,-0.39706293,-0.3240642,0.19073178,0.24664563,-0.28929627,0.0705855,-0.07901842,0.19637105,0.47449324,0.10009137,0.26790372
drug_3,0.2849003,-0.09028801,-0.039336096,0.20934975,-0.11412325,-0.07819818,0.03444315,0.5897706,-0.20555142,-0.25791,0.060817767,0.011711221,-0.17045532,0.19086942,0.10419363,-0.21980134,0.1243022,0.07895244,-0.007095316,0.14720604,0.13966715,0.0072419387,-0.32820442,-0.016757064,0.20122729,-0.38221353,-0.20138614,0.3927599,-0.1629523,-0.11926836,-0.268249,-0.5897282,0.09184749,0.58852696,-0.18715438,-0.5926734,-0.08533958,-0.10906458,0.163899,0.2302832,0.052486356,0.48398036,0.44255486,0.1388778,-0.11074852,-0.334869,-0.22626519,0.26207188,-0.08562768,-0.3428468,-0.21324942,0.6968736,-0.0848292,-0.041967597,0.2901225,0.15155222,-0.10232554,0.06505346,0.16482115,-0.14884144,0.18498771,0.06728894,0.18081418,-0.17194737,0.061885882,-0.0834649,0.062143676,0.37930685,0.077192575,0.13190758,0.386403,0.09560103,-0.42128298,-0.023423145,0.07315584,0.054770876,-0.27447513,-0.02153858,0.12361578,-0.33437848,-0.1372802,0.085277885,-0.056994606,0.29156792,-0.07933031,-0.061456896,-0.49684608,-0.21120018,0.34399208,0.065044984,-0.17400098,0.46099508,0.05087242,0.4165888,-0.13428073,0.27306944,-0.0751182,-0.037462175,0.20541403,0.11671851,-0.41531202,0.14497,-0.17982417,0.25718147,-0.008848561,-0.2001811,-0.14853874,0.019760385,-0.19557445,-0.035143584,0.40067828,0.14060843,0.30845314,-0.055301227,0.2972529,-0.1704176,-0.25279847,-0.13174176,-0.122138865,0.025487492,0.13049461,0.42744175,0.21069635,-0.098059356,-0.046007447,0.027912233,-0.5400857,-0.038715817,-0.007022236,0.054331776,-0.038040265,-0.055943046,0.058840703,0.2548445,-0.43525392,-0.1357317,-0.18791845,-0.05413518,-0.063795924,-0.05846648,0.1644583,0.14815193,-0.34717593,-0.02987282,-0.0077575557,-0.48023573,-0.1927838,0.26891288,0.088558346,-0.19833921,0.09083557,-0.078532,-0.4236848,-0.16120583,-0.028700091,0.045030553,0.02698949,-0.23308131,-0.34050912,0.04026243,0.021538123,0.19922033,0.33157825,-0.08961556,-0.19292213,-0.051810786,0.19793516,-0.278004,-0.41742578,0.03102667,0.042557403,0.11667862,0.12370834,-0.7303239,0.20342158,0.06994666,0.19794679,-0.054017913,-0.010508478,-0.08189142,-0.24196267,0.5067186,0.12144221,-0.124184296,-0.52920914,0.024035957,-0.27801436,-0.053177,-0.59287125,-0.048556007,-0.17496826,0.17015085,-0.37151134,-0.09688094,-0.14762889,0.12977007,-0.21877803,0.041101772
drug_4,0.28375933,0.3686769,-0.2011694,-0.19272383,0.22794132,0.23515797,0.1756736,0.084059656,0.27694142,0.13545428,-0.15154333,-0.26949695,-0.1342081,0.026807785,0.21334773,-0.38253537,0.31149596,0.10084596,0.08735941,0.15748471,-0.23014301,0.11895557,-0.30777463,0.1602244,-0.08611599,-0.5598506,-0.0035717487,0.013247903,-0.07158334,-0.30305505,-0.25854996,-0.3309917,0.46318653,0.42865565,-0.34535506,-0.49736398,-0.22647989,-0.12639812,0.012093758,0.2096082,0.19417578,0.26293004,0.10895897,0.17167181,-0.11722525,-0.34492284,0.038550034,-0.13242391,0.073789895,-0.11685328,0.049762502,-0.008656445,-0.047198858,-0.38362327,0.22232565,0.015434686,-0.12456714,0.20709255,-0.0485706,-0.16187665,0.21432897,0.0698632,0.46736538,-0.56897956,-0.23107202,-0.20306121,-0.15673697,0.23669095,-0.2647197,0.054423086,0.011553231,0.20094746,-0.3229885,-0.044641834,0.20588002,0.39807913,0.07534479,0.21967876,0.11106619,-0.07567705,-0.24462312,-0.12577859,-0.3108524,-0.22079085,-0.17996784,-0.34553242,-0.2687375,-0.026585583,0.22620228,-0.39614668,-0.12865332,-0.23455435,0.27347955,0.31172588,0.5026648,-0.06137279,-0.05389346,-0.14848945,0.44390497,-0.061951768,-0.2019649,-0.039498977,0.118577935,0.23727052,-0.22108924,0.20379105,-0.107967794,0.030751055,-0.17396091,-0.1053388,0.25474614,0.027975475,0.057934083,0.43015003,-0.021086993,-0.4534326,-0.10561799,-0.15564914,-0.012911967,0.27916437,0.51322675,0.02719962,0.21269475,-0.40164798,0.33866122,-0.3023712,0.07614706,-0.10511193,-0.059838988,-0.14870803,0.0877731,-0.16837345,0.1360136,-0.11441876,0.009317695,-0.10225184,0.047448114,-0.10673727,-0.14474644,0.46971446,0.09984566,-0.26632205,0.009027158,0.023261636,0.60786766,-0.687985,-0.14403331,0.14302085,0.14847313,-0.0551755,-0.06421443,0.0817145,-0.25334463,-0.124133356,-0.01753009,0.23458436,0.10699007,-0.10792055,0.050475072,0.12391455,-0.325301,0.533804,0.43806514,-0.06866989,-0.4465575,0.09719546,-0.17036718,0.41174033,0.09615904,-0.13867784,0.40256307,0.080601886,-0.08779685,-0.35018378,-0.15846592,-0.4404338,0.1403873,-0.086483546,-0.003580885,-0.024393776,-0.09546605,0.46578422,-0.077426836,0.20175612,-0.33470535,-0.15801525,-0.13154684,-0.31973985,-0.51372504,-0.042899024,-0.27854452,0.15895465,0.09915205,0.2786031,-0.16136955,0.15567532,-0.3707027,0.08371033
drug_5,-0.045230895,-0.073736235,-0.2690145,-0.0028319908,-0.32941756,-0.031557865,-0.09709389,0.43134344,0.051201474,-0.051967204,0.06112016,0.09740545,-0.13647546,0.13910063,0.33279586,-0.027388219,-0.1410888,0.22854361,0.10031684,0.07524103,-0.20764863,-0.043850515,-0.24816194,0.058863282,0.36650237,-0.32613024,-0.09763835,0.30494815,-0.20077436,-0.15450116,-0.21907724,-0.5135694,0.2523095,0.17475387,-0.21552205,-0.592298,-0.0031090933,-0.23462392,-0.022719061,0.21565953,-0.25987616,0.52587223,0.46620208,-0.021419493,-0.38802606,-0.097589515,0.22033693,0.013197556,0.21448843,-0.2806349,-0.12808335,0.25758457,0.17836384,0.014142129,0.4062905,0.18329924,-0.089440435,0.25111732,0.11432247,0.21719238,0.6511952,0.1572742,0.24056761,-0.077842556,-0.3833603,0.0009417161,-0.027407048,0.47953695,-0.16192703,-0.11354637,0.33389753,0.07679866,-0.20347929,0.05975101,0.35954976,0.37332353,-0.26290613,-0.105716564,-0.112843655,-0.24901241,0.10714316,-0.19035871,-0.23136902,0.30870542,0.31721804,-0.13061756,-0.287221,-0.10383212,0.31357807,0.01269898,-0.20075801,0.42462978,0.23351417,0.32783675,-0.25789928,0.19755393,0.2310958,-0.03111685,0.021459756,-0.12654363,-0.37756586,-0.074875005,-0.21451068,0.113976926,0.014569206,0.27799055,-0.044829696,-0.09523199,-0.114581004,-0.09131759,-0.09115113,0.18924789,-0.11592904,0.10598922,0.27460217,-0.6338281,-0.020708887,-0.37872112,-0.22482063,0.18868968,0.39560643,0.22305577,0.33021358,-0.39259994,0.09540757,-0.31075788,-0.21908784,0.09446189,0.17693387,0.32967994,-0.25474396,-0.09077439,0.08621408,0.14691597,0.21153912,-0.15950717,-0.095997214,-0.20149174,0.024526794,0.012797985,0.028721182,0.2842685,-0.16048414,-0.18918112,-0.0471582,-0.321839,-0.4814859,0.0006691387,0.20817825,-0.16419004,0.0369676,-0.23199956,-0.45510855,-0.10434247,0.22999707,-0.06638208,-0.25496307,0.040462222,-0.13768232,0.16613396,-0.060274165,0.22227053,0.4884051,0.089158095,0.08226051,0.017372267,-0.17393333,-0.06588827,-0.17729679,-0.22623058,-0.017090438,0.3225677,0.20895869,-0.28948927,0.25575247,-0.07677814,0.29712045,0.035692666,0.12478696,-0.25104547,-0.15149619,0.35044315,-0.4348448,-0.083904296,-0.36500573,0.19756052,-0.23851067,0.0023934362,-0.31478348,-0.06499129,-0.044361603,0.088171974,0.16707908,0.028464198,-0.13368806,-0.049143627,-0.22443542,0.12931986
drug_6,-0.10105096,0.24409427,-0.010777311,0.29595464,-0.08396395,0.25692907,0.43024856,0.35541445,0.53759086,-0.019396324,0.2627349,-0.17450579,-0.16963197,-0.17075205,0.10110207,0.14224456,0.20509955,0.0990149,-0.0928251,0.018622426,-0.39787084,0.053708054,-0.45675445,-0.17172241,0.20680419,-0.47073334,0.3731505,0.05628888,-0.4095697,0.0615762,-0.36379182,-0.3196742,0.21870695,0.40385547,-0.1701694,-0.43084097,0.12260612,-0.18272577,0.0015370032,-0.112578064,0.31977803,0.15397987,0.20709838,-0.5639475,-0.48249716,0.124126084,0.312672,-0.6068979,-0.42006037,0.04024711,0.34582776,0.68525606,-0.004038829,-0.6612089,0.79240686,0.05127515,-0.19455475,0.07835478,-0.19802323,-0.23504469,0.46285084,-0.25943992,0.09428144,-0.37054864,-0.044071097,-0.050482918,-0.27232984,0.25966468,-0.122457385,0.38482055,0.5447542,-0.03420493,-0.6449166,0.0054213963,0.7945385,-0.16800357,0.1629648,0.38826826,0.33576465,0.044242483,-0.16381761,-0.3322003,-0.06392471,-0.381487,-0.5286577,-0.21977766,-0.42923236,-0.12544462,-0.13677654,-0.33951765,0.11384891,0.44476172,0.38705325,0.6681262,0.27045694,0.620035,-0.16244999,-0.044592407,0.44126722,0.53341717,0.04422141,0.11641318,0.17257684,0.010221561,-0.03028885,-0.07957196,-0.6517004,-0.1419239,-0.36144602,0.18853083,-0.079589635,0.22063076,0.008551547,0.26170447,0.26937273,-0.5265577,-0.32518423,0.3618942,0.0837525,-0.23621346,-0.09044146,0.1884604,-0.4672378,-0.52870166,-0.36898622,-0.17970148,0.012732134,0.5423013,0.08136398,0.15402964,-0.19588353,-0.35890296,-0.010564843,-0.21954523,-0.14545234,0.010106856,-0.13510203,-0.15786703,-0.12150071,0.040990267,-0.11130977,0.81243426,0.3719786,-0.4033658,0.15184239,-1.0031589,-0.23386517,0.16607772,0.22597902,-0.14456576,0.04460705,-0.6591755,-0.4418111,-0.05386448,0.26628727,0.08024734,-0.2057331,-0.35494766,-0.23420718,-0.006344919,0.28801298,0.27514306,0.37847385,0.5509865,-0.3054923,0.05064615,-0.63470805,-0.2165068,-0.06478372,-0.53034747,0.1997612,0.2147893,0.17532521,-0.10784029,0.15563925,-0.45402518,-0.17008775,0.10387845,-0.02198659,-0.24753387,-0.197272,0.6379946,-0.24295695,-0.25545824,-0.63780373,-0.022916757,0.08221459,-0.5010423,-0.20086834,-0.42211065,0.082587756,0.30779448,0.12569787,-0.13267241,-0.1502001,0.4759024,0.04893751,0.06411318
drug_7,-0.031976886,0.08943485,-0.43296254,0.08207813,-0.101224005,0.012663957,-0.07479133,0.5301233,-0.18363902,-0.30303064,0.14189415,-0.059841365,-0.16614069,0.22814834,0.3730321,-0.3703046,-0.094690755,0.19433352,0.022710115,0.07399995,-0.13217965,-0.25105447,-0.2542771,-0.08554415,0.3718426,-0.5219998,0.08639153,0.003656031,-0.1004079,-0.03448276,-0.4672115,-0.44838846,0.4778127,0.31062037,-0.16176602,-0.3736358,-0.13551524,-0.36937913,-0.034091514,0.051799536,-0.2464782,0.70480376,0.41955242,0.10974429,-0.38834926,-0.06766188,0.3127364,-0.14925562,0.3151302,-0.06865419,-0.11456043,0.19718225,-0.11370443,-0.06846905,0.45689428,-0.037363585,0.24049485,0.06777974,0.10000255,0.2594534,0.4180536,0.24258314,0.48907346,-0.139431,-0.11728923,0.03717261,0.16562887,0.43285316,-0.46768075,0.11269685,0.28562242,0.1496784,-0.28100735,0.21347263,0.24995309,0.2959796,-0.46056452,-0.07282596,0.049627256,-0.13191679,0.071013905,-0.15764281,-0.05665129,0.31969857,0.018181687,-0.19711368,-0.28804457,-0.19646893,0.36069292,-0.06794162,-0.25759223,0.44258678,-0.06499823,0.21704167,-0.043888386,0.04230581,0.2458423,-0.07403404,0.13143204,-0.2841492,-0.13738692,-0.117140844,-0.14952426,-0.04715195,-0.039195422,0.22329156,-0.30239737,-0.19087397,-0.38462266,-0.04514055,-0.0810565,0.10306813,-0.20066233,0.03910844,0.13716349,-0.3493767,-0.29617494,-0.3757805,-0.08242459,0.21400496,0.13070598,0.24157177,0.32371897,-0.33001944,-0.04761959,-0.2023185,-0.3138523,0.17209165,-0.012898491,0.4282359,-0.022647474,-0.12920104,-0.08210586,0.16483736,0.35484448,-0.2847597,-0.21124455,-0.21048462,-0.058212254,0.00038406783,0.14042851,0.0048556942,0.07999898,0.0074244947,0.037448324,-0.03138189,-0.2535496,0.21683297,0.22121029,-0.008843081,0.06678913,-0.04271974,-0.40292728,-0.17577171,0.20910276,-0.07574374,0.026500557,0.08263747,-0.19369505,0.058459375,-0.36135134,0.20663211,0.33487812,0.06199187,-0.052304972,-0.010939161,-0.2396769,-0.17948669,0.02066843,-0.202449,-0.0083202645,0.08696352,-0.068774045,-0.4736739,0.09637719,0.07197652,0.14645895,0.0347526,0.25702256,0.026658392,0.010631667,0.6119643,-0.29962984,-0.13547924,-0.32630524,0.06454688,-0.23621185,-0.07381999,-0.38682744,-0.21601024,0.018146168,0.11430197,0.11893665,0.1394013,-0.266138,0.037517466,-0.19606501,0.031776838
drug_8,0.43486997,0.04102409,-0.2192136,-0.0037507995,0.10873496,0.11542334,-0.0023228452,-0.0025956542,0.28976038,0.04797332,-0.090290695,-0.038126677,-0.34100413,0.10655474,0.24295767,-0.37753758,0.37174794,0.019723548,-0.0017558959,-0.15428765,-0.15687636,0.07744552,-0.22117095,0.0014505726,0.029924193,-0.61092,-0.034130834,0.10589589,-0.14702368,-0.12037158,-0.10100079,-0.27136227,0.4114973,0.36953428,-0.24360973,-0.22707394,-0.22725986,-0.10387089,0.11235941,0.18716484,0.059117306,0.39422992,0.12043446,0.30020222,-0.16519651,-0.18244556,0.09496449,0.0014371093,0.1986403,0.109304905,-0.009349855,0.13110267,-0.093062915,-0.36814708,0.42891994,0.24218902,-0.21158108,0.17610657,-0.028458972,0.09241271,0.14356092,-0.14882387,0.49979928,-0.6801415,-0.15087594,-0.22464043,0.013588665,0.18997245,0.086835966,0.10955196,0.24254571,0.27824458,-0.3821815,0.16087034,0.12987481,0.3905659,-0.053819433,0.06839179,0.052437637,-0.10865433,-0.2567479,-0.20235384,-0.13616656,-0.10829595,-0.13851936,-0.582212,-0.42539158,0.1653355,0.15840742,-0.2789993,-0.1722229,-0.17867467,0.18121362,0.41885388,0.43787158,-0.116313465,-0.074023575,-0.12457389,0.21548462,-0.1535979,-0.2009439,0.08343257,-0.006262419,0.26966378,-0.08227677,0.06265349,-0.29142317,-0.068712525,-0.264738,-0.07973375,0.26062837,-0.018803442,-0.06477815,0.4481659,-0.07239645,-0.48066926,0.014473756,-0.27810717,0.060609553,0.005052535,0.3226716,0.09605964,0.13695374,-0.44837195,0.21473166,-0.09680732,0.12647109,-0.051818024,0.0761927,-0.02540294,-0.06758066,-0.13926776,0.22880416,0.011755502,-0.04584748,-0.13318229,0.16100088,-0.080618106,-0.07564805,0.44850478,-0.013326363,-0.1226431,-0.23398857,0.01777945,0.5793791,-0.62438136,-0.027802026,-0.18538295,0.21930711,-0.12506469,0.099737294,0.09142669,-0.24135157,-0.10970734,-0.01712099,-0.013332041,0.21329767,0.06558027,-0.27381703,0.011209333,-0.24615622,0.2811912,0.25142834,0.22375701,-0.19412449,0.092832774,-0.04458916,0.3627718,-0.10426331,-0.3621215,0.34954938,0.116569854,-0.03068596,-0.3580749,-0.088735946,-0.32479385,0.26893857,-0.16431183,-0.19368367,-0.007982217,0.06997327,0.41421378,0.06603035,0.1737803,-0.34684968,-0.208066,-0.25706527,-0.2837859,-0.55929923,-0.07352554,-0.33212516,0.12236172,-0.10134718,0.37106317,-0.21858539,0.0013811232,-0.052052926,-0.002263541
drug_9,0.26703757,0.109918535,-0.09397842,-0.040971998,0.18608786,0.05442008,0.11259252,0.12770055,-0.21330963,0.12605202,0.20852797,0.034303214,-0.026838943,-0.26824638,0.0047054747,-0.3716524,0.5392176,-0.014450004,-0.1641982,-0.099884905,-0.1143945,0.043490164,-0.35782957,0.063933596,-0.13069472,-0.62462676,0.33581764,0.06268325,-0.28965083,-0.04869299,-0.1457623,-0.18203805,0.3245273,0.15948658,-0.038681965,-0.5837133,-0.2326288,-0.48931694,0.19246425,0.15895465,0.24660118,-0.119539715,-0.04862915,-0.010722702,-0.14735554,-0.23743,0.23433493,-0.13305616,-0.0026134504,0.029776363,0.19364725,0.44897956,-0.33690828,-0.3948876,0.22471197,0.1790196,-0.38760108,0.2953315,-0.45569962,-0.051071092,0.16222571,-0.41503602,0.6807212,-0.5564904,-0.18220474,-0.4725203,-0.21605888,-0.08711335,0.09378884,0.11833537,0.2968174,0.37330312,-0.545313,0.19164993,0.19464484,0.46359986,0.12534863,0.3666298,0.43674952,-0.0061648935,-0.29441208,-0.19964552,0.015963165,-0.4066524,0.07673918,-0.35726365,-0.05556741,-0.07201164,0.20028391,-0.81124836,-0.11086653,0.007458696,0.057955477,0.33853707,0.38422444,-0.07986784,0.031452794,-0.44217274,0.0368083,0.14591286,-0.07397741,-0.08454727,-0.038627055,0.24762912,-0.009277922,0.37234223,-0.5108626,-0.026427854,-0.39447144,0.017618954,-0.05024462,0.17329413,-0.23707375,0.56497514,0.008125448,-0.53144413,0.20720392,-0.31715652,0.018019412,0.15406747,0.107463345,0.08778223,0.002791878,-0.42017826,-0.08336892,-0.2443628,0.026105775,0.2586855,0.04313609,0.24852432,-0.13986051,-0.269978,0.038702734,0.21231613,-0.23971426,-0.11473492,-0.19426921,-0.078082405,-0.05816675,0.54745805,0.1455476,-0.33172557,-0.03507819,0.12306143,0.44328028,-0.8400564,-0.21659423,-0.045295388,-0.0830927,0.20536974,0.027931297,-0.043398406,-0.42135727,-0.013420101,0.16313097,0.00702164,-0.056233425,-0.13166465,0.14308836,0.23393154,-0.19327886,0.18774742,0.2703347,-0.055790152,-0.3181807,-0.3102495,-0.19318028,0.40603796,0.021711603,-0.57546145,0.26150984,0.37115762,-0.024116477,-0.30577564,0.21426757,-0.2626295,0.013416579,-0.27900222,-0.11620215,0.014172786,0.41950837,0.6578341,-0.34930456,-0.10678618,-0.5836008,-0.5726254,0.0034274533,-0.26282108,-0.51867986,-0.10680701,-0.073249646,-0.09863717,0.11630157,0.30547896,0.06880393,0.28742212,0.14276277,-0.11165837
drug_10,0.11240885,0.1074101,-0.11519528,-0.1947843,0.21832897,-0.070540465,0.23640561,0.3656338,-0.25433302,-0.07027314,0.3496804,-0.05633697,-0.19867721,0.3782471,0.12078714,-0.46323517,0.257383,0.16172631,0.0375249,0.32630783,-0.05942451,-0.039778356,-0.58138114,0.15073179,0.011646206,-0.31974894,0.107578605,0.5644865,-0.21512498,-0.14146355,-0.105446644,-0.3689014,0.06199367,0.5209926,0.013004422,-0.6336573,-0.12488898,-0.58307874,-0.0012142354,-0.10703359,0.084236585,0.16364166,0.50142384,-0.26147738,-0.18072094,-0.1105529,0.06822765,0.0017064573,0.16745394,-0.13605347,-0.17509492,0.59886676,0.07071602,-0.18770815,0.21340314,-0.07996809,0.073963754,0.41676253,0.25330594,-0.12906204,0.08574249,-0.14143881,0.26452622,-0.38798317,-0.15739305,-0.1407911,-0.16411094,0.45909294,-0.013717363,-0.081439644,0.06157573,-0.2185853,-0.24673449,0.13971198,-0.054995645,0.0377101,-0.42715013,0.23442514,0.09025276,-0.23398782,-0.1292181,0.020073269,-0.3869643,0.24272919,0.03718201,-0.072382145,-0.51873,-0.2621843,0.2117335,0.13170458,-0.17991722,0.6019203,-0.049829654,0.18907343,-0.23555245,0.088443235,-0.31661922,-0.27537236,0.1668522,0.14961118,-0.66198844,0.30036882,-0.05097056,-0.017731156,0.17834316,0.23281415,-0.105683036,0.089144334,-0.17866701,-0.06698922,0.26979142,0.061102957,-0.22936897,0.22301364,0.0817815,-0.32980314,-0.23931932,-0.04596399,-0.21518978,0.20884691,0.26836574,0.44058126,-0.066799454,-0.23516397,-0.188734,0.32467234,-0.04307725,0.00157074,0.22171457,-0.20935892,-0.12199989,0.10816956,0.15882023,-0.24213025,-0.44275463,0.06207847,-0.14930387,-0.4475173,-0.17414805,0.2049983,0.13680558,0.4294877,-0.36860383,-0.18726975,-0.14663838,-0.27324387,-0.25451595,0.15248129,0.032300945,-0.25979352,-0.25877345,-0.37967795,-0.8458679,-0.06107592,-0.20492087,0.06831935,0.10512939,0.24785854,-0.09391203,-0.14732392,-0.33955958,0.39848953,0.40715155,-0.2379524,-0.21043482,0.25320977,0.21115574,-0.05191835,-0.5371042,0.07783713,0.14803013,0.24925888,0.23598157,-0.46108395,0.032543205,-0.111911684,-0.15462433,-0.14393063,0.035993878,-0.3714411,-0.2038846,0.4993109,-0.026334496,0.022775063,-0.40460107,-0.21835181,-0.0733154,-0.2509323,-0.3136476,-0.10786289,-0.16110818,0.077449664,-0.18165389,-0.39757815,-0.1972436,0.22129361,-0.14789319,0.23007227
drug_11,-0.15127595,0.44930908,-0.29627505,0.6962416,0.15764643,0.106998175,-0.0071229944,0.41946906,0.19961138,0.5552879,0.10819336,-0.45242894,0.031606954,0.33083126,0.23501863,-0.4373457,0.012552508,-0.06741126,0.47916093,0.14385734,-0.31274748,-0.27581427,-0.056250114,-0.039814778,0.0027610592,-0.27510273,0.10182107,0.18435358,-0.41402423,0.33391392,-0.52914864,-0.2947562,0.115781926,0.52446765,0.021796383,-0.20906475,0.0950807,-0.19717948,0.13849758,-0.19322869,0.13619007,0.69049424,0.6351311,-0.03204647,-0.20860359,-0.25913343,-0.32591045,-0.4132773,0.06364918,-0.1949796,0.14279002,0.40657467,0.040143758,-0.33101076,0.2192767,0.023270223,-0.28584823,0.49188915,0.045444306,-0.1666654,-0.058448095,-0.4714199,0.77110416,-0.2504825,-0.113637775,0.14989562,0.10592253,0.47463176,-0.041531663,0.8249345,0.29680583,0.187345,-0.5918536,0.0030390224,0.09092868,-0.19294399,-0.5406605,0.6821342,0.81408113,0.050666925,-0.32716742,0.030394794,-0.044069868,-0.7987244,-0.26673865,-0.56601435,-0.28829995,0.000101438316,-0.021263676,-0.49906418,-0.2131973,-0.23147124,0.44071552,0.59961665,-0.13232204,0.028777372,0.11636062,-0.17650913,0.017871877,0.73514503,0.061779287,0.10643748,-0.1813054,0.41675255,0.0071605775,-0.08011402,-0.572723,-0.41363573,-0.20800368,0.08487639,-0.13106382,0.6010417,-0.5655846,0.48151118,0.17358716,-0.647516,0.054135676,-0.034000047,-0.35922596,0.4238721,-0.16269371,0.40173405,-0.12805815,-0.6717727,0.40076962,-0.02206012,-0.2987393,0.55112576,0.38508502,0.14402752,-0.38756728,-0.55965245,-0.08143999,0.026075285,-0.40662464,0.3504435,-0.16460049,-0.436025,-0.16369203,0.11027782,-0.02081276,0.36649236,-0.09245104,-0.47151735,0.21556889,-0.75153285,-0.47180393,0.026193248,-0.11455277,-0.1564123,0.030061733,-0.39288488,-0.6570228,0.11841452,0.32457435,-0.50111383,-0.24180853,-0.034767713,-0.06100018,-0.43165848,-0.05199708,0.2794433,0.63214815,0.38276753,-0.41165844,-0.45152915,-0.8204284,0.12267109,-0.31831056,-0.3831106,0.11666353,0.6765852,0.5752129,-0.564869,0.49649304,-0.8152241,0.48117477,0.08904692,-0.11499997,-0.2890815,0.18540761,0.673124,-0.3133854,-0.26936853,-0.54300195,-0.39868808,0.43517172,-0.047423173,-0.19633748,0.067544885,0.48643208,-0.3571504,-0.2438436,-0.33290613,-0.26559603,0.50243,0.3042927,0.4347441
drug_12,-0.095510386,0.35730866,-0.32575795,-0.005481887,0.117266625,-0.16381566,0.3102391,0.32721168,0.15242499,-0.17029364,0.14891092,-0.22809206,0.01254073,-0.23172551,0.17216785,-0.28400588,0.0017506679,0.21687016,0.2312602,0.003793304,-0.2491883,-0.54364634,-0.19894978,0.5254491,0.42623118,-0.21570668,-0.01639081,-0.10708592,-0.07558852,-0.17201924,-0.42618877,-0.25908473,0.05282885,0.036417954,-0.024900647,0.061316293,-0.26818392,-0.37090728,0.6442629,0.32293615,0.25035095,0.500899,0.48660126,-0.521761,-0.31390592,-0.4112037,0.15727007,0.012269146,0.027724642,0.0902003,-0.009134065,0.657519,-0.18359527,-0.40492108,0.44252944,-0.07374141,-0.24791194,0.43817717,-0.15492779,0.030466847,0.57975715,-0.33457375,0.31217995,-0.4243559,-0.11985608,-0.11960343,-0.41207913,-0.25850016,0.22942549,0.17296381,0.43050593,0.21591589,-0.39387664,0.19354892,0.5604406,0.08775646,-0.530029,0.37212214,0.36373362,0.26536965,-0.37228212,-0.3937476,-0.27114043,-0.3168038,-0.711031,-0.015947435,-0.20920488,-0.08169755,0.23729567,-0.19526713,0.124436125,0.36790866,0.05127126,0.35787767,0.28105634,0.35254136,-0.110954314,-0.04720017,0.44978788,0.8912489,0.13762662,0.012499702,-0.10024911,0.6011283,0.086648144,0.035995748,-0.0879033,-0.27350622,-0.28458935,-0.08807723,0.09015513,0.5264488,-0.24972625,0.33702517,0.59353745,-0.315945,0.42996278,-0.31932494,0.12614378,0.39976665,-0.03451756,0.14112127,0.027268728,0.003158011,-0.112402596,-0.0038444696,-0.036622472,0.24645881,0.38169825,0.13897602,-0.35417578,-0.4285573,-0.13093998,0.2651606,0.115952194,0.031129317,0.19001098,-0.27693686,-0.26528454,0.11965049,0.043237947,0.35675368,-0.025723811,0.22584859,0.31363508,-0.7558248,-0.21584433,0.19967647,-0.05138119,0.22801563,-0.08911101,-0.38096204,-0.81551903,0.10399124,0.21396615,-0.10605501,-0.27518538,-0.24192248,-0.43393165,0.012238549,-0.31872672,0.3552013,0.4226082,0.06860599,-0.4612231,-0.19761142,-0.3279605,-0.12676881,-0.13757454,-0.28278357,0.6733355,-0.08828469,0.16193232,0.04676581,0.053817555,-0.53434104,0.277437,0.32319766,0.30388135,0.042470038,-0.6998365,0.42269564,-0.3990205,-0.23118436,-0.47469112,-0.041637573,0.280724,0.02502187,-0.3155975,0.31402457,-0.31291494,-0.1928424,-0.30118567,-0.105835415,0.102666944,0.47395346,0.16109875,-0.17322876
drug_13,0.21031363,0.21277334,-0.22522,0.006522443,0.17800502,0.15684284,0.03837576,0.36636436,-0.07196386,-0.20174833,0.07638136,0.03098206,0.002598295,0.27293175,0.3760823,-0.39128783,0.07899057,0.11901792,0.14274289,0.13184159,-0.1505632,-0.12773971,-0.30053645,0.15519807,0.14740723,-0.3756003,-0.1326748,0.21541199,-0.1453906,-0.15615031,-0.20911373,-0.45611086,0.24754466,0.4078629,-0.25484303,-0.5196353,-0.15991896,-0.28860694,0.015586787,0.10831649,0.013878249,0.56729573,0.30518624,-0.06247003,-0.14556187,0.12945133,0.1051903,-0.048190847,0.1768745,0.018926311,0.0103926575,0.20286225,-0.072287016,-0.118109435,0.2971123,-0.028069336,-0.11306527,0.11108362,0.123792194,0.28483072,0.45562387,-0.040452104,0.37390953,-0.31626192,-0.20678888,0.05768135,-0.0457016,0.48686758,-0.13112997,-0.107550666,0.00029238718,0.15964621,-0.27802935,0.06723042,0.11568185,0.40181962,-0.15341544,-0.057187956,0.043106224,-0.1978344,-0.0909152,-0.040326137,-0.0054585193,0.2312398,-0.029170856,-0.42064628,-0.2205473,-0.3538298,0.22016406,-0.06292895,-0.16054112,0.28498173,0.0567075,0.0800995,-0.13410978,0.10795134,0.06910327,-0.06457029,-0.036224373,-0.25323507,-0.36667535,0.07165573,-0.14179505,0.15637222,0.05891231,0.11196512,0.09450347,0.0069954246,-0.10593165,-0.041028757,0.120782,0.25378644,0.058594678,0.2598401,-0.15436216,-0.55404896,-0.4164748,-0.17620376,0.015840227,0.18698797,0.5388476,0.042123124,0.38399398,-0.13995942,-0.08480982,-0.2321597,-0.042407256,0.18005033,0.13784663,0.24094637,0.11237478,-0.1333698,0.10200193,-0.08762316,0.31474274,-0.018731521,-0.1108599,-0.245414,0.11063859,0.15468198,0.0063790986,-0.07037324,-0.031783342,-0.1590644,-0.028312823,-0.26821685,-0.30031362,-0.020692073,0.20540394,-0.07497453,-0.10537739,0.010115565,-0.5162066,-0.1457512,-0.1886792,0.0715863,-0.15222134,0.09257615,-0.20380439,-0.09227806,-0.28790945,0.44837072,0.53090173,-0.18113212,-0.014593656,0.11713412,0.07831886,-0.102001436,-0.21272655,-0.2331995,-0.009196614,0.116452485,-0.069203965,-0.43108994,0.0925216,-0.12349732,0.104760334,-0.2642784,0.18006414,-0.22016948,-0.10623289,0.3065976,-0.027440133,0.15172526,-0.29812714,-0.06581915,-0.35520697,-0.09477796,-0.34426743,-0.32507056,-0.080033526,0.2935245,-0.043602753,-0.010824035,-0.3216342,0.14113417,-0.2147164,-0.011961633
drug_14,-0.18251204,0.34367424,-0.27621648,0.20603149,0.12611602,-0.08992714,0.425429,0.30318946,0.2670367,-0.21153598,-0.10091088,-0.20685588,0.14393221,-0.22881748,0.052993838,-0.22638872,-0.07894925,0.16418116,0.12714837,0.15715764,-0.12358025,-0.5399554,-0.2781701,0.3455029,0.39990127,-0.22658029,0.052377652,-0.11589471,-0.20003644,-0.27237943,-0.41260117,-0.050380748,0.09054507,0.0058963685,0.09901926,0.010522442,-0.094118685,-0.1765236,0.6313926,0.19378956,0.23779142,0.3275831,0.52671444,-0.39167032,-0.33400738,-0.3610993,0.07421359,0.013675858,0.11561236,-0.054032147,-0.03778655,0.7689031,-0.2488316,-0.42238343,0.46506476,0.07279472,-0.19646737,0.4949566,-0.09173504,0.020632239,0.424882,-0.50726867,0.41864267,-0.42183134,-0.24970339,-0.152121,-0.20303115,-0.10356958,0.2065957,0.25584143,0.44667345,0.3035018,-0.30257538,0.2469153,0.51504344,-0.03168353,-0.3105335,0.25496027,0.3300119,0.19040298,-0.5034008,-0.27411348,-0.2360171,-0.20440401,-0.73552436,-0.091304034,-0.2000369,-0.028387846,0.2797234,-0.17478646,0.12604766,0.2931825,0.026948227,0.4067978,0.2551417,0.17237906,0.045421597,-0.108521625,0.3543204,0.96374583,0.102864765,-0.06507461,-0.15446916,0.55535996,0.0031355761,0.011422309,-0.1452376,-0.3312805,-0.34431756,-0.21002333,0.124405764,0.40025496,-0.23940206,0.11756162,0.6467359,-0.4129226,0.29269493,-0.31051025,-0.008898548,0.37209752,-0.080824226,0.14273453,-0.14934981,-0.021678867,-0.27072936,-0.12565798,-0.15579689,0.15568505,0.22877267,0.25350907,-0.46044347,-0.38391736,-0.14513384,0.19213416,0.15510632,-0.09460487,0.32026884,-0.2914868,-0.37451974,0.090261266,-0.07340973,0.41454828,-0.13693273,0.2809221,0.17901073,-0.88515085,-0.2268524,0.2515801,0.01769176,0.22035171,-0.07292065,-0.41224763,-0.84342855,0.1060556,0.026211416,-0.050382394,-0.10279339,0.0071749347,-0.48316786,-0.10015155,-0.38784856,0.43535173,0.6750165,0.12852506,-0.5425106,-0.29052028,-0.30828592,0.15461405,-0.21793309,-0.46498984,0.65132374,-0.092557676,0.31700182,0.1149443,0.16655827,-0.3945853,0.30303076,0.227404,0.27149814,0.034958664,-0.59173024,0.35182703,-0.33225584,-0.2886801,-0.5048493,-0.03485272,0.40778613,0.033780716,-0.24373649,0.31822237,-0.26931533,-0.22490165,-0.23489662,-0.104247026,0.12145382,0.38958907,0.035679508,0.09625175
drug_15,-0.14535527,0.39091498,-0.3424569,0.21009858,0.11983658,-0.08808268,0.46831495,0.3881903,0.26521412,-0.25040632,-0.10024583,-0.1813612,0.097466774,-0.25054315,0.042375125,-0.23932777,-0.103983864,0.13488173,0.15934946,0.123032786,-0.15444967,-0.5601031,-0.3008179,0.32389495,0.37329277,-0.23538326,0.027192116,-0.11331451,-0.2303222,-0.25767693,-0.41474253,-0.0941367,0.07711622,0.06539222,0.11765138,0.031529747,-0.10155005,-0.22569513,0.6495184,0.18900408,0.20593058,0.28588113,0.5265577,-0.3921969,-0.31675857,-0.3226149,0.05214692,0.0071508572,0.12044272,-0.008025839,-0.031343196,0.75137186,-0.28175482,-0.36855358,0.46119052,0.06517521,-0.16291481,0.45977446,-0.0830604,0.07071113,0.38018784,-0.4573086,0.37470588,-0.45876968,-0.26042402,-0.15735163,-0.16391242,-0.17162731,0.23335467,0.24697864,0.37696433,0.26544982,-0.3307002,0.29066774,0.5414916,-0.04194425,-0.35447294,0.25933897,0.32658455,0.21051471,-0.51049817,-0.29909772,-0.25124454,-0.20351347,-0.69681996,-0.08553616,-0.21351397,-0.00789741,0.2458272,-0.13573219,0.18592933,0.3032612,0.0210436,0.3943317,0.26929954,0.1968895,0.03606493,-0.124709904,0.3138432,0.9301628,0.13231464,-0.070361786,-0.16879103,0.5040441,0.0015474217,0.0447631,-0.16113007,-0.34704265,-0.3256965,-0.2051917,0.1345562,0.3942968,-0.21021992,0.12333242,0.65890414,-0.43645605,0.32926902,-0.28419235,0.020398999,0.36879772,-0.070750095,0.15022716,-0.1022103,-0.041172117,-0.29278636,-0.13673402,-0.1312604,0.15404783,0.16854379,0.2768044,-0.4621962,-0.41738296,-0.12165822,0.19861683,0.13966995,-0.061593488,0.29637447,-0.2912118,-0.36086562,0.08874502,-0.07038483,0.37837768,-0.13469087,0.2365306,0.19278705,-0.83604217,-0.19970928,0.24947004,-0.03154195,0.23602499,-0.085119225,-0.3977391,-0.84092313,0.10687395,0.053474993,-0.07091157,-0.11526194,-0.024800546,-0.46734333,-0.09264113,-0.4219343,0.38098034,0.66430885,0.15828305,-0.5460328,-0.30058116,-0.2846763,0.13917395,-0.21637331,-0.4652431,0.64606684,-0.10800443,0.28347668,0.11499176,0.1844584,-0.4450545,0.32336506,0.22258309,0.27175462,0.02574623,-0.61262,0.37638557,-0.34647793,-0.26776648,-0.53471845,-0.014934078,0.4317183,-0.0026049428,-0.25274652,0.3124476,-0.2662908,-0.18879528,-0.24604225,-0.09324446,0.12868875,0.3793683,0.08074529,0.06586194
drug_16,0.4100432,0.1994066,-0.23670243,0.026158346,0.18576282,0.12665266,0.180615,0.18898843,0.09598998,0.22872573,0.027180823,-0.0020894746,-0.21819092,0.13146703,0.31703082,-0.66725576,0.1414699,0.2937069,0.044958316,0.04713097,-0.033979412,-0.08281462,-0.3313656,0.18710577,0.14142467,-0.71953607,-0.014764926,-0.12755656,-0.03560861,-0.055737246,-0.021684494,-0.23641351,0.27245298,0.6501433,-0.098833695,-0.46595922,-0.3081451,-0.07921348,0.2232952,0.15137473,0.18876372,0.059617706,0.09850193,0.13640104,-0.36386713,-0.20350811,0.22760773,0.072921954,0.1556369,0.06850121,-0.11789523,0.05383577,-0.20577756,-0.21273717,0.37084273,0.117141284,-0.045455094,0.06645981,0.19230574,-0.10116119,0.21479996,0.01981018,0.5100464,-0.67291933,0.13934457,-0.006628522,0.0146673145,0.20801947,0.06562006,0.065030426,0.21365102,0.23435515,-0.5996369,0.20882833,0.09292902,0.20442107,0.13593526,0.33498672,0.255001,0.020338785,-0.206058,-0.0597326,-0.27130407,-0.07329043,-0.043756817,-0.5134101,-0.058667026,0.13546453,0.0054430556,-0.29344192,-0.13982332,-0.0051793833,0.12839775,0.2585558,0.5959514,-0.18003595,-0.16732094,0.048086833,0.021514319,-0.120868,-0.073510624,-0.0065625957,-0.123610534,0.37268695,-0.27035204,0.0414843,-0.31756222,0.120164804,-0.059718333,-0.19444792,0.37144205,0.21177018,0.018763943,0.2846306,-0.07773468,-0.2659459,0.047963396,-0.1065836,-0.047273736,0.0435715,0.45968753,0.1009354,0.06763971,-0.5583955,0.17416066,-0.09653247,0.09835183,-0.05567436,-0.10961248,-0.007171761,0.09166102,-0.01968174,0.08622813,0.16403057,0.16829005,-0.14033878,0.093381025,-0.10635697,-0.10277264,0.26952106,-0.010174628,-0.18958023,-0.046609662,-0.116128005,0.48416752,-0.7183455,-0.12605622,0.069408774,0.03928745,-0.18542345,0.25177664,-0.26798564,-0.28980267,-0.21227379,0.043914307,0.087173544,-4.489191e-05,-0.12393133,-0.104023404,-0.25322,-0.19834487,0.38679618,0.51925373,0.18737873,-0.22490829,-0.009717787,-0.16393319,0.42000896,0.09156648,-0.16704716,0.13520685,0.28080574,0.11301366,-0.2997108,0.014835389,-0.591358,0.09383248,-0.25200617,-0.0011751645,-0.17337264,0.025296325,0.30752006,-0.19756557,0.28813422,-0.1530333,-0.3283096,-0.14129938,-0.08876501,-0.47338355,0.033500712,-0.36400887,0.14364716,0.17633642,0.3538081,-0.18092492,0.11797122,-0.058995835,-0.03150426
drug_17,0.40554965,0.21776368,-0.42472664,-0.18750894,0.17091669,0.1603795,0.03962757,-0.01753407,0.39252293,0.031787984,-0.27002376,-0.16456886,-0.40580994,0.005670424,0.30639383,-0.49753073,0.24105519,-0.026302895,0.0062273648,-0.20945121,-0.20582041,0.06427779,-0.21350147,0.04584596,0.045745585,-0.63534766,-0.11874593,0.1270797,-0.17949775,-0.056902412,-0.012628771,-0.36882126,0.5761463,0.49342504,-0.21728703,-0.398436,-0.15595338,-0.06978954,0.07964776,0.2870756,0.22220865,0.5144303,0.14340663,0.23579761,-0.024319308,-0.117721,0.087997936,0.032313664,0.24111079,0.14299245,-0.020506224,0.24252267,-0.13026778,-0.31935015,0.42820665,0.29588315,-0.09063527,0.08711827,-0.077675514,-0.060420018,0.0826652,-0.17106013,0.5104835,-0.69666463,-0.124913745,-0.12398896,0.10773368,0.26273754,0.10470763,0.16412547,0.10296493,0.34457773,-0.43413225,0.08291067,0.25047046,0.3728983,0.074168645,0.086738355,0.023185499,-0.10994584,-0.38552034,-0.18950345,-0.102045245,-0.21581174,-0.15858576,-0.4346123,-0.2994058,0.17079604,0.086900204,-0.3541018,-0.03286004,-0.16859336,0.07522223,0.33580035,0.45218638,-0.090755805,-0.094949804,0.0050425706,0.28464574,0.007632505,-0.2783368,0.05440775,0.0019780856,0.30971977,-0.13200998,0.12212776,-0.24852584,-0.047259387,-0.3501632,0.016658522,0.14992826,-0.02554958,0.0182763,0.37915438,-0.114355616,-0.6030461,-0.053082466,-0.32950437,0.041363336,0.14719386,0.3577036,0.025806949,0.11258939,-0.3838491,0.15234424,-0.13661912,0.14898185,-0.053497683,-0.02647994,0.07533267,-0.15662095,-0.15892509,0.17778336,0.06732538,-0.069314085,-0.13771996,0.099672966,-0.14166184,-0.003789543,0.45059603,-0.075606376,-0.2409978,-0.18479563,-0.036957342,0.53815985,-0.5825471,0.017639149,-0.21937373,0.2504611,-0.09137505,0.06980107,0.055896644,-0.1442782,-0.26114398,-0.03895824,0.0011348283,0.05393156,-0.056246843,-0.3179776,-0.030015338,-0.2454846,0.29114175,0.16503555,0.0666789,-0.2686436,0.10399848,-0.11644669,0.37066337,-0.057540067,-0.33177283,0.2622609,0.14223833,-0.030646706,-0.31471696,-0.025007457,-0.3625786,0.30936965,0.0023272485,-0.31138748,-0.022103356,0.10034539,0.2555895,-0.030941002,0.07004961,-0.2847846,-0.21929142,-0.21270683,-0.30749875,-0.43139365,0.009302661,-0.253384,0.028706275,-0.06367936,0.19689149,-0.1756095,-0.06330809,-0.0969382,-0.004387624
drug_18,0.42216572,0.07301197,-0.4076135,-0.05039094,0.16070044,0.05364164,0.16198519,0.05952876,0.29933336,0.17585856,-0.1768348,-0.14976029,-0.3698068,0.003393341,0.30457675,-0.33772993,0.24468325,0.25476784,0.17365825,-0.27543435,-0.20599888,-0.02006279,0.051407434,0.1065972,0.1408212,-0.5575284,-0.15823954,0.007209886,-0.11141336,-0.10111853,-0.046860565,-0.141664,0.5560549,0.66560245,-0.095094346,-0.17963256,-0.30232808,0.22067843,0.15210785,0.30785707,0.10526801,0.41912487,0.067384414,0.19008225,-0.25283656,-0.026962576,0.094443716,-0.10950501,0.08070979,0.33849487,-0.05939138,0.3082232,0.023213943,-0.33150455,0.40721092,0.14696099,-0.11339045,0.23693374,-0.023940388,0.121568866,0.30038163,-0.11994369,0.4876243,-0.68930817,0.069732934,-0.09422235,0.099565506,0.38078293,0.15136848,0.1736123,0.2869903,0.24538238,-0.43508953,0.15689844,0.075261,0.24289834,0.01833519,0.16203745,0.25739413,-0.0036789756,-0.14791779,-0.13842839,-0.06793087,-0.113305084,-0.17818198,-0.56915355,-0.38925773,0.28793302,0.018237691,0.10734126,-0.12485834,-0.22928877,0.10768463,0.43457916,0.39651415,-0.16542718,-0.17023174,-0.02079859,0.26307765,-0.040905707,-0.20420709,0.39365155,0.012639337,0.16314544,-0.09262266,-0.09425058,-0.53123784,0.14782882,-0.07332778,0.015225369,0.32039955,0.03221614,-0.10133473,0.27667615,0.036714267,-0.5130652,0.029636709,-0.5182819,-0.0024471658,0.050989877,0.38345003,0.07490065,0.04565106,-0.43051645,0.13568741,-0.15159597,0.033262543,-0.064564,-0.024337223,-0.084101155,-0.21849692,-0.060272958,0.26134154,0.19615933,0.03153031,-0.09887387,0.15709563,-0.032927256,-0.27167124,0.52642447,-0.2525931,-0.024954671,-0.04096995,0.001698968,0.5144366,-0.60280985,-0.27136847,-0.0601328,0.16257139,-0.080732055,0.18128338,-0.004635246,-0.21335222,-0.26527104,0.14161973,-0.1012278,0.0729838,-0.039945837,-0.3294453,-0.16132773,-0.2998081,0.27718598,0.23546918,0.30984658,-0.15007938,0.06989518,-0.064815335,0.30284938,0.040047556,-0.19329335,0.31306973,0.2201005,-0.1656424,-0.1990891,0.047040198,-0.5159249,0.06758254,-0.019400107,-0.32563266,-0.03771412,-0.14244518,0.38522112,-0.21144757,0.4150337,-0.39209616,-0.23894854,-0.06286308,-0.32958898,-0.6144936,-0.19161242,-0.27462563,0.17999567,-0.18263195,0.371408,-0.24524115,0.04562173,-0.003645806,-9.827605e-05
drug_19,0.33706066,-0.20867564,-0.13076933,-0.23270948,0.25808087,-0.05591532,0.034528457,0.3062723,-0.009607635,-0.07143454,0.0553642,-0.13923195,-0.10703248,0.20903677,0.42454857,-0.4381292,0.018502735,0.22558783,0.094249934,-0.09345771,-0.075899035,-0.03359648,-0.2550288,0.16119498,0.10932898,-0.33212173,-0.25300652,0.33700883,-0.025676278,-0.045742415,-0.2082071,-0.50535715,0.32648757,0.5815744,-0.27897587,-0.38905698,-0.19101386,-0.23994471,-0.004647146,0.18135926,0.22115882,0.24936908,0.39929858,0.017231537,0.06424557,-0.11578745,0.10487398,0.2745453,0.00762972,-0.017075948,-0.23657782,0.44898447,-0.00054927304,-0.14206636,0.25390536,0.11214819,0.11792848,0.07597955,0.25343487,-0.035047043,0.17740779,-0.014757715,0.14579426,-0.33922037,0.053523857,0.20250082,0.2089478,0.41754618,-0.23104449,-0.023282975,0.27496323,0.19898464,-0.3564228,0.0855021,0.022952987,0.11689645,-0.046929184,0.05162486,0.27339908,-0.29453185,-0.16885057,0.001441509,-0.10519127,0.2011695,0.16942386,-0.32669434,-0.48265314,-0.17135385,0.12876026,-0.10301542,0.0044030524,0.2780209,0.10620025,0.3775768,0.10272452,0.19053887,-0.0005828031,0.08615392,0.13906446,-0.012412789,-0.32373857,0.16157316,-0.23953156,0.24146906,-0.05131223,0.0048987987,-0.099181935,0.09126578,-0.0490869,0.010397221,0.40282902,0.12865943,0.15537673,0.06046781,0.20881729,-0.12670407,-0.18642564,-0.30324164,-0.2196179,0.19774984,0.5693793,0.017190136,0.14859556,-0.104491726,0.06473993,-0.12605451,-0.09462357,-0.07989378,0.092988364,0.067854315,-0.07056213,0.12089227,0.11736508,0.053611692,-0.19201364,0.104364835,-0.13997988,-0.24838349,7.636914e-05,0.30800295,0.0255691,-0.015377902,-0.32685658,-0.055181544,0.035982177,-0.4431484,-0.16526118,0.13857324,0.15710074,-0.08226385,0.14656211,-0.03586124,-0.3858774,-0.37272725,0.0035365825,-0.070473336,-0.038214494,0.08184506,-0.06782313,-0.06556718,-0.34146523,0.17138952,0.37194636,-0.09494976,-0.17099634,0.120275095,0.15722051,0.07610252,-0.49417996,-0.16282704,-0.06803377,0.091616124,-0.117228664,-0.4999397,0.17252052,-0.03393116,0.05123865,-0.2287912,-0.058093585,-0.08496398,-0.07793659,0.55581975,0.0052056266,0.056397308,-0.31390938,-0.14081684,-0.30517825,-0.08811881,-0.37076983,-0.24763395,-0.2103431,-0.046528835,-0.12854286,-0.014748073,-0.32389146,0.14656079,-0.19780312,0.08431443
drug_20,0.45020166,-0.069610216,-0.26586887,-0.06687475,-0.004914984,0.08158261,0.13028698,0.3264764,-0.067817435,0.13213015,-0.025102517,-0.11982608,-0.18499036,0.14537175,0.29479402,-0.41127402,0.18770324,0.24811523,0.024382425,0.0002007984,-0.1035894,0.03107891,-0.21210277,0.1073424,0.08462384,-0.5404245,-0.08525234,0.14266092,-0.089744955,0.06619601,-0.17094755,-0.34112015,0.4767487,0.5618578,-0.10877487,-0.3837869,-0.3048855,-0.28140214,-0.03098811,0.13327543,0.15044227,0.17260966,0.16427082,0.13769622,-0.14227457,-0.2530661,0.31213912,0.177098,0.20442426,0.079902306,-0.17875575,0.057520036,-0.07826545,-0.13510214,0.23882401,0.15329975,0.0022613718,0.088168934,0.05022535,0.020301595,0.17200758,-0.0012861816,0.38174936,-0.69695145,0.056321908,-0.037764966,0.1143348,0.34244344,-0.1486177,0.100649975,0.29225987,0.22701627,-0.3723996,0.16170312,0.17736709,0.28921846,0.023358475,0.028745703,0.116015054,-0.26659307,-0.17845842,-0.083826594,-0.13589098,0.09528007,0.08219625,-0.4386081,-0.2901498,-0.00940337,0.14870408,-0.28439692,-0.1745626,0.13692452,0.030350933,0.36947522,0.46673855,-0.10066139,-0.12871847,0.030508172,0.21639888,-0.24793406,-0.23173316,-0.029321978,-0.108665675,0.11723806,-0.23039828,0.09409815,-0.43602338,0.110339165,-0.3045398,-0.16514155,0.34088627,-0.02707182,0.034532063,0.2413074,-0.082493655,-0.32179958,-0.07691495,-0.34945992,-0.10193253,0.15183108,0.46822092,0.051619224,0.11729339,-0.35078678,0.23798928,-0.1595033,0.040582504,-0.18090631,-0.031912766,-0.14658102,-0.10073654,-0.0022453805,0.20780228,0.027191458,-0.025808161,-0.14310738,0.13895313,-0.16496429,-0.04653615,0.41643313,-0.067520864,-0.091634974,-0.274398,0.060665306,0.42139304,-0.5109447,-0.060831316,0.056857135,0.093226865,-0.117657,0.2459994,0.089460455,-0.17955913,-0.048174985,0.034809694,-0.0070875785,-0.04243144,0.10044783,-0.08171156,0.048770197,-0.3248756,0.17821644,0.21696033,0.09265021,-0.1454964,0.09061401,-0.020944277,0.3402717,0.017216215,-0.21177404,0.028681679,0.23399305,-0.023941688,-0.4164644,-0.018931309,-0.3389835,0.045385137,-0.06345776,-0.21868654,-0.14956185,0.012552685,0.48339063,-0.12149046,0.19442113,-0.32497904,-0.22637133,-0.17955314,-0.13052842,-0.42546034,-0.18503328,-0.31044486,0.060246587,-0.07620989,0.27282363,-0.17025627,0.02074056,-0.22911647,0.015914496
drug_21,0.070591025,0.31731117,-0.24355741,-0.17185993,0.10322849,-0.33408034,-0.0097248815,0.38937944,-0.6546065,0.32495728,0.0062577883,-0.7144805,0.5750384,-0.13735904,-0.24571343,-0.3950111,0.29099396,0.3131841,-0.11060825,0.24652094,0.20157886,-0.41975126,-0.2495999,0.5243687,0.13082579,-0.38667142,-0.18489096,0.62227255,-0.48113057,-0.32384112,-0.40059948,-0.025514847,0.24154525,0.5847616,0.32771948,-0.14158992,-0.2692539,-0.2077378,0.48785368,-0.14098798,0.35463855,0.3341579,0.59065104,-0.133065,-0.47460845,0.010336695,-0.27398366,-0.238021,0.23163505,-0.4787952,0.1160078,0.6224804,-0.24081703,-0.22553131,0.3799442,0.0073093087,-0.35488567,0.520207,-0.13182239,0.2607116,0.42876357,-0.27570495,0.9030686,-0.4373283,-0.6778413,-0.045201708,0.17134747,0.3478652,0.46446124,0.22143215,0.33433995,0.5957567,-0.41887733,0.2929614,-0.19052571,0.28996816,-0.37624422,0.38337523,0.58869743,0.48726237,-0.2726408,0.04427348,-0.20143682,-0.2996764,0.030434528,-0.21603,-0.117602065,-0.03280061,0.04270747,0.16371085,0.30970973,-0.00621624,7.680488e-05,0.23235576,-0.30187532,-0.3303841,-0.10284854,-0.5610694,0.35499564,0.0066082818,-0.40981194,0.29831842,-0.19506939,0.5057626,-0.09020738,-0.26991925,-0.37888005,-0.26865774,-0.45225313,0.042335078,0.20941515,0.27938297,-0.8457437,0.36719012,0.17330553,-0.53499824,0.1973936,-0.53917277,0.15726735,0.33658922,-0.16934423,0.09137963,0.4302126,-0.23095548,0.04566508,0.19998801,-0.27817667,0.63175863,0.32134008,0.16329505,-0.08565599,-0.42437276,0.15547082,0.7872189,-0.1416825,-0.083699875,-0.076089926,-0.5333801,-0.48461193,0.20969567,0.09208716,-0.16649881,-0.029262643,-0.2315994,0.32764468,-1.3108618,-0.53136975,-0.06352134,0.27767828,0.10507004,0.26445466,-0.7422779,-1.1989746,0.19531482,0.46068874,-0.20755899,0.01679867,-0.05944362,-0.5185897,-0.1221022,-0.41968668,0.46792814,0.39426512,0.4877225,-0.2090997,-0.61531925,-0.2700062,0.2039584,-0.44983757,0.124235876,0.32087964,0.39503694,0.24389033,-0.48556912,-0.22912271,-0.68564314,-0.03236765,0.65545595,-0.2976517,0.31379002,-0.37494338,0.64521265,-0.24343093,-0.107512176,-0.41475415,-0.50786495,0.3033201,0.45652816,-0.6075522,0.21125387,0.5360237,-0.0025574074,0.050376594,-0.026146758,-0.09972533,0.3574413,0.46744242,0.19065298
drug_22,0.34897596,-0.22016235,-0.26823056,-0.05675279,0.18663606,0.001926106,0.17993434,0.40068248,-0.27043658,-0.09702415,0.101173274,-0.08549962,0.024126539,0.11061117,0.37433717,-0.44495738,-0.18432395,0.14705905,0.03563311,-0.060345866,-0.00714273,0.08268853,-0.38072836,0.31075642,0.22881664,-0.30320674,-0.1744413,0.21944241,0.055710126,-0.049396466,0.00810571,-0.32345486,0.1788905,0.31097257,-0.29720834,-0.23323604,0.027159551,-0.05881857,-0.13622692,0.006862373,-0.08335898,0.22730826,0.3724289,-0.36366987,0.020625804,0.11111752,0.104867294,0.081165835,-0.034565397,0.021761708,-0.043703288,0.40810364,-0.048872277,-0.3390585,0.34193853,-0.08066512,0.10998667,0.065484904,0.36724865,0.12484885,0.11708592,-0.12217614,0.19002247,-0.19548678,-0.16893417,0.22210762,0.16017333,0.5701113,-0.17894989,-0.054946236,0.31779397,-0.024880983,-0.2618241,-0.0008962834,0.18346685,0.15904589,-0.22004731,0.18874644,0.13174883,-0.3889791,-0.17562795,0.13181332,-0.15261869,0.20000058,0.25486177,-0.209846,-0.37171277,-0.19639497,0.12455774,-0.00095367996,0.02240199,0.2686271,0.04745245,0.17322364,-0.2113556,0.2351741,-0.078474455,0.063415706,0.3138116,-0.04290336,-0.5353382,0.11624195,-0.042153407,0.3681639,-0.027534707,-0.0015875523,-0.2866552,-0.013065951,-0.13137929,0.008416083,0.29194707,0.028756557,0.036109325,-0.0010445233,0.3497612,-0.2742717,-0.24418816,-0.32808623,-0.021480119,0.36873275,0.59044254,0.14498629,0.13254438,-0.17904574,-0.035436876,-0.25396913,-0.009818901,0.008085476,-0.015244913,0.11737064,-0.06257811,0.04917058,0.30879006,-0.041857276,-0.06434975,0.1612948,-0.2107855,-0.447717,0.20734702,0.014560341,0.011355304,0.098375686,-0.3068317,-0.13159789,-0.09584472,-0.40417644,-0.13646635,0.10021468,0.22780928,-0.006901747,0.17661905,-0.19173706,-0.5839665,-0.29777288,0.10577328,-0.09784013,-0.010440763,0.18414721,-0.32444426,-0.07038836,-0.39527413,0.41267836,0.52354634,-0.13018796,-0.13233912,0.06419063,-0.16948535,0.0020238145,-0.2610496,-0.051113117,-0.08505439,0.19842532,-0.19515486,-0.28387582,0.096541196,0.12572774,0.0026777184,-0.19126208,0.069580205,-0.17507212,-0.101399645,0.60209614,-0.20331381,0.08450892,-0.39192128,0.0019905935,-0.30140206,-0.15828386,-0.36492133,-0.42796794,-0.04172809,-0.0011316276,-0.0894457,-0.037723128,-0.35317343,0.22581124,-0.32122147,0.018825999
drug_23,0.12966312,-0.20117396,-0.32904682,0.10439688,-0.020477844,-0.08816607,0.009015347,0.50268,-0.15544508,-0.2150789,0.096636325,-0.20519619,-0.05391743,0.23423551,0.31181088,-0.29815757,0.06357245,0.11555813,0.05576528,0.14014943,-0.08769423,0.08119492,-0.33553705,0.017557891,0.27426267,-0.42265442,-0.0706166,0.28679597,-0.3179221,-0.13619229,-0.12201685,-0.37065032,0.25194547,0.40336522,-0.12670374,-0.64651287,0.001046878,-0.2369009,0.094149604,0.26298076,0.012559074,0.37778714,0.46776,0.045948025,-0.2906414,-0.100346915,0.22441298,0.03703941,0.18570447,0.0017830313,-0.32251132,0.25104946,0.014310353,0.02706301,0.45242235,0.16724415,-0.086031295,0.22800517,0.15661925,0.13673265,0.36114183,0.15441117,0.11138472,-0.15573847,-0.13963835,-0.005751611,0.13945775,0.54114735,-0.14037646,-0.21779831,0.37632945,0.044983175,-0.35816404,-0.06508014,0.11194225,0.19929379,-0.2836871,-0.04747829,-0.007724946,-0.35425505,0.024492431,-0.0573915,-0.16640285,0.26479656,0.25650987,-0.22257847,-0.2466266,-0.087220296,0.25586426,-0.14576757,-0.14349015,0.3433563,0.086921334,0.06470632,0.0639687,0.082025796,0.0385657,0.00754059,0.12961555,-0.29162556,-0.2712671,-0.016132198,-0.24302495,0.13492018,-0.06280901,0.22102982,-0.114476666,-0.044264063,-0.0049309237,0.035501435,0.07348882,-0.00055495976,0.01958549,-0.1808129,0.26387027,-0.38365746,-0.35929754,-0.089769244,-0.24675275,0.2926509,0.2623588,0.21784703,0.2364879,-0.39178342,0.039148718,-0.14710045,-0.34028992,-0.1323937,0.049575716,0.1295151,0.013956464,-0.041882634,0.025619775,0.15922564,0.096213825,-0.15896764,-0.028800191,-0.1746689,0.040386025,-0.08662576,0.08528645,0.17943908,-0.31057706,-0.08694614,-0.11781419,-0.44936267,-0.12008085,-0.0155202905,0.036811076,0.06595988,0.05589863,-0.062815584,-0.36061057,-0.3211956,0.071551345,-0.07015168,-0.057425715,0.08523368,-0.1701272,0.02877999,-0.25870618,0.25655743,0.5066569,-0.039240427,0.05486059,-0.12606806,0.039775617,-0.14583561,-0.28264278,-0.24728695,0.057561085,0.27415705,-0.10226942,-0.46121952,0.12450975,0.0299895,0.30794904,0.050440278,0.19215322,-0.19336087,-0.08959129,0.3585297,-0.39497164,0.06614189,-0.5088003,0.1018136,-0.24045868,0.006118317,-0.4162298,-0.038677838,-0.080225274,0.102145076,-0.06326752,-0.116884135,-0.056154054,0.06542416,-0.19437248,0.03533499
drug_24,0.53880894,0.21405058,-0.25792927,0.27939233,-0.012987367,-0.0973302,0.5708846,0.24800272,-0.15167154,-0.24965475,-0.069605075,-0.26448864,0.12019549,-0.023815442,-0.06389275,-0.27472627,0.078257486,0.7088231,0.084032096,0.0019821797,-0.45692003,0.056423992,-0.22015189,0.32119793,0.22555129,-0.43741268,0.36841714,-0.12361704,-0.31542832,0.5081925,0.17410351,-0.019349363,0.3773572,0.45155773,0.21017727,-0.34239906,-0.11439161,0.22098564,0.38675058,-0.0719615,0.24962685,0.062941566,0.7472486,-0.5847103,-0.34283587,0.20575204,0.09219525,-0.100342065,-0.22864598,-0.21904965,0.29011196,0.44692847,-0.113878906,-0.5202064,0.34070686,-0.13790287,0.09297307,0.6314012,-0.44574365,-0.013405318,0.17470038,-0.13491274,0.41123214,-0.63396204,0.3170385,-0.7482804,-0.22646333,0.29649028,-0.2856395,0.49146637,0.3625571,-0.17573467,-0.41646525,-0.1897298,0.37603363,0.3079139,-0.14147578,0.8144063,0.36005875,-0.31727412,-0.6986394,-0.44883278,-0.45515728,-0.2978351,-0.2330738,0.0075157206,-0.40731996,-0.056174424,0.19383892,-0.43135285,-0.17667577,-0.07081993,-0.14739887,0.25534654,0.37547615,0.16284494,0.017959911,-0.4093544,0.4567354,0.5693982,-0.38410065,0.24072154,0.29201975,0.13559069,0.061858125,-0.026719337,-0.3426646,-0.03132008,-0.33064556,-0.343776,0.020671522,0.12395463,-0.473061,0.54078734,0.34429175,-0.7736895,0.20064943,-0.05053628,-0.032227006,0.16732016,-0.56630754,0.021895386,0.19393264,-0.5590611,-0.15972804,0.12068892,-0.52310055,0.18543163,-0.14404626,0.20903556,0.47291905,0.15420167,-0.12434346,-0.04407185,-0.41785794,-0.51737714,-0.40366608,-0.14145772,-0.46369714,0.04339009,-0.3495369,0.62580514,-0.008829536,-0.0047534006,0.26740888,-0.6903413,-0.2663003,0.3028197,0.2689316,-0.2327314,-0.021543223,-0.4903042,-0.99300456,-0.041863255,0.7991247,0.20072651,0.014125664,-0.37843716,-0.62759143,-0.21898049,-0.51524353,0.40935266,0.25604057,0.2619503,-0.41475976,-0.39346758,-0.7145194,-0.38718277,0.053606473,-0.57642657,0.48119384,0.36598152,-0.018436579,-0.2504818,-0.099221736,-0.028869424,0.11637787,0.28420678,0.020491388,-0.3266458,-0.17747083,0.6637113,-0.85867035,0.0787244,-0.5659729,0.15933318,0.4833113,-0.05721013,-0.34654453,0.090588495,0.2174628,-0.35722393,0.06248032,0.06828127,0.16886473,0.39339343,-0.10351014,0.11467632
drug_25,0.031736825,0.08942525,-0.32586384,0.044613782,-0.06767437,0.18630694,-0.1091789,0.36980638,0.029546734,-0.13269407,-0.061236307,-0.15145408,0.03880075,0.19668718,0.43025336,-0.21371351,-0.17856723,0.26193738,0.17111874,0.16410638,-0.1721485,-0.10314542,-0.1750677,0.071434736,0.33537772,-0.41592342,0.02481508,0.15995885,-0.12168109,-0.08049888,-0.3608869,-0.518769,0.39465585,0.33898488,-0.045350514,-0.44477448,-0.06925531,-0.25118092,-0.073318206,0.10660315,-0.20988812,0.611586,0.4142661,0.059628554,-0.36840346,-0.07077258,0.32855478,0.06978145,0.31441525,0.0012380434,-0.17946653,0.08323565,-0.035117004,-0.05447378,0.34674752,0.103206836,0.15122883,0.06358439,0.16455469,0.23753381,0.42861298,0.15815993,0.24845591,-0.1724193,-0.099767,-0.010769819,0.07573756,0.35796198,-0.3353131,-0.0934008,0.13764958,0.030782908,-0.28794417,0.09110654,0.31681252,0.39113104,-0.29107258,-0.032019757,-0.01981695,-0.21318625,-0.07716048,-0.07571839,-0.18790463,0.19962671,0.022776186,-0.21294957,-0.23873828,-0.2459231,0.3122129,-0.08072246,-0.13074228,0.38791367,-0.005501202,0.115880825,-0.077665046,0.09673096,0.23069239,-0.1840703,0.14572418,-0.28380334,-0.27451465,0.005188736,-0.08774497,0.086572066,0.0026937148,0.27004796,0.0054856385,-0.08759811,-0.24691473,0.04404941,-0.01547119,0.14345464,-0.07324527,0.04364247,0.08468798,-0.5606173,-0.3093137,-0.344632,-0.11885858,0.25612304,0.36219704,0.10669126,0.4123377,-0.2341463,0.064264864,-0.29448995,-0.3171235,0.11098347,0.09832235,0.42282078,0.05912788,-0.040942494,0.008765927,0.1091543,0.24943948,-0.20491374,-0.0672158,-0.26386312,-0.067989685,0.08538877,0.09014068,0.05383573,-0.023295647,-0.047566883,0.017255556,-0.3267718,-0.28575835,0.13906577,0.13334516,-0.13337068,-0.023165425,-0.02850708,-0.44737205,-0.2826195,0.14654826,-0.057944164,-0.16721612,0.025283888,-0.17821975,-0.06632075,-0.22871931,0.21955559,0.43038726,0.017464496,0.04488137,0.04086905,-0.11940959,-0.14662512,-0.093036346,-0.328823,-0.063337184,0.23592901,-0.08173469,-0.34003356,0.1200245,-0.044825908,0.21058649,0.020227382,0.10101025,-0.20855784,-0.033996172,0.5169423,-0.24241832,-0.08478271,-0.43748003,0.0715847,-0.15418519,-0.020086616,-0.28885898,-0.2192084,0.038058534,0.01189335,0.059269566,-0.00803854,-0.23779018,0.037728,-0.28491944,0.008756937
drug_26,0.1648061,0.49382737,-0.03230657,0.49405855,-0.17481597,0.10589452,0.36952448,0.08287221,-0.09437655,-0.16183075,0.3183866,-0.015522713,-0.10971153,0.010114726,-0.28642067,-0.1788307,-0.1228951,0.12162323,0.2195423,0.080545455,-0.03855977,-0.24655356,-0.8373082,0.38525352,0.05118598,-0.21473064,0.15091746,0.09453235,-0.34616348,-0.1974968,-0.19538662,-0.1821408,-0.026959253,0.043043565,-0.025378643,-0.6149619,0.095194586,0.0046770573,-0.3523873,0.4214185,-0.07437611,0.1727094,0.28253323,-0.38128254,-0.028218113,-0.15581696,0.065887615,-0.6428977,0.31981987,-0.34511068,0.31754342,0.60258466,-0.05763298,-0.27371025,0.6936402,-0.06647136,-0.13374178,0.62211394,-0.4055121,0.070828624,0.39479402,-0.58097184,0.65354294,-0.3258646,-0.108635545,-0.17406046,-0.14824174,0.12020705,0.4154154,0.8895859,0.57155025,0.18833482,-0.46033776,0.19587858,0.14414445,-0.20060028,-0.36154225,0.27070802,0.66726524,0.38756248,-0.5065665,-0.044314392,-0.22010677,-0.20766759,-0.29880247,-0.29350886,-0.45400506,0.3120087,0.46985915,0.091187954,0.4964767,0.100314766,0.112741426,0.25106725,0.23071101,0.074790925,0.048728075,-0.17423019,0.31606382,0.11110266,-0.11593476,0.013692654,-0.330189,0.0943709,0.30413362,-0.0410594,-0.53801155,-0.0834316,-0.0069951303,0.03595219,-0.10817577,0.5560101,-0.39228424,0.27729964,0.5055305,-0.6439971,0.31409794,-0.16447154,0.038482815,0.43379003,-0.18283175,0.08521409,0.19301485,-0.6450044,0.07226744,0.07581711,-0.36542675,0.38128585,0.19021162,0.28143868,0.22835138,-0.16295567,0.04165885,-0.16789451,-0.39929283,0.09560346,0.023866743,0.0764286,-0.41118106,-0.16013725,-0.11314585,0.15585211,0.117807664,-0.29187825,0.3598752,-0.87759966,-0.14019684,0.13388681,0.18623455,-0.0029258842,0.23044702,-0.94817775,-0.82834715,-0.27379462,0.5043038,-0.032216486,-0.053448316,-0.3481955,-0.67840874,0.0562919,-0.006591802,0.8382287,-0.178819,0.09397556,-0.0074086385,-0.13027418,-0.5949956,0.20981054,-0.4130431,-0.1761014,0.25518262,0.3297804,-0.0062173656,-0.4710735,0.10217124,-0.18367705,-0.018049845,0.52749306,-0.19855131,-0.30708167,-0.048213515,0.51167876,-0.4668071,-0.22097783,-0.6567324,-0.37520546,0.08356706,-0.22589612,-0.21042727,0.29682907,0.19750988,0.06854918,0.39223674,-0.021221314,-0.6731349,-0.03790212,0.04206497,-0.115131184
drug_27,0.081427954,0.410706,0.018327044,0.3936894,-0.13096821,0.1551491,0.38531795,0.19618595,-0.02416844,-0.05786839,0.24916662,-0.01739398,-0.08675282,0.003721502,-0.19865485,-0.35436472,-0.13363981,0.25033078,0.1775739,0.034673598,0.01067336,-0.3599774,-0.85420126,0.38231128,0.08935493,-0.08098354,0.2305423,0.055639025,-0.24628997,-0.14773639,-0.16185446,-0.20253518,-0.05195152,0.018906137,0.15115435,-0.5907183,0.10970079,0.07746654,-0.32871592,0.40120792,-0.07740606,0.13166186,0.34188646,-0.4690271,-0.104362145,-0.25083,0.018335506,-0.7098731,0.22731999,-0.32456207,0.26179928,0.5773303,-0.09121638,-0.21161209,0.6806341,-0.10427483,-0.15778702,0.5508892,-0.34993446,-0.05939366,0.36801073,-0.6098353,0.5734388,-0.2486824,-0.090042084,-0.06930636,-0.15747312,0.18838723,0.40095916,0.92758113,0.55675864,0.21595216,-0.44664797,0.24783775,0.13053465,-0.13725993,-0.36890694,0.1879285,0.5542994,0.23486465,-0.5380807,-0.05754703,-0.09240043,-0.34914342,-0.3040068,-0.25063345,-0.3872041,0.33566853,0.4342129,0.04658291,0.5017401,0.046282806,0.10007273,0.13495773,0.22833115,0.12408858,-0.016356457,-0.23570032,0.4373158,0.030778136,-0.10494282,0.04940733,-0.281238,0.12743466,0.26697123,-0.1473065,-0.45433095,-0.014533557,-0.10744848,0.060865823,-0.17181459,0.51696736,-0.44468194,0.23038527,0.49566233,-0.584291,0.31392005,-0.18209231,0.014949719,0.34101796,-0.23951022,0.043141387,0.14980775,-0.6017392,0.046896476,0.079413615,-0.3664508,0.32625014,0.10505259,0.2262393,0.1519153,-0.27074885,0.09554504,-0.18235248,-0.45856884,0.0014809327,-0.012295681,0.12374892,-0.46902692,-0.11349478,-0.12783957,0.08851534,0.11673872,-0.3813064,0.40373266,-0.7995632,-0.04290745,0.089711696,0.2539606,0.1045923,0.29725823,-0.90783566,-0.87472224,-0.29228425,0.58106613,-0.014442975,-0.1028035,-0.44191596,-0.6505053,0.043123398,0.0072737876,0.8951841,-0.12470868,0.10293554,-0.067971036,-0.02203222,-0.6262479,0.31928328,-0.4124075,-0.26374707,0.30172595,0.39079776,0.045586783,-0.5509104,0.08208305,-0.1969644,-0.015085072,0.45144227,-0.21575436,-0.2851922,-0.1854275,0.59704256,-0.45135,-0.34357423,-0.7852772,-0.4492451,0.07222658,-0.14958474,-0.32942748,0.1830608,0.063735515,0.042151753,0.39706993,-0.092417136,-0.6436622,-0.062033575,0.08467018,-0.13289016
drug_28,0.27541912,-0.13445175,-0.21901497,-0.12984528,0.17754382,0.032609608,0.1333942,0.20227315,-0.15623237,-0.2294228,0.18027672,-0.08216847,-0.15687285,0.2335694,0.14968427,-0.4310067,0.04170947,0.21026956,-0.03410187,0.09085051,0.006891652,-0.030094568,-0.30902895,0.0413878,-0.13800319,-0.35085532,-0.06613955,0.2688087,-0.17243275,-0.13389692,-0.1666943,-0.4550782,0.26792273,0.3977044,-0.07234076,-0.36372587,-0.15838501,-0.3015464,0.10670513,-0.019348353,0.16358334,0.18480347,0.46349865,-0.14627008,-0.15990013,-0.16669028,-0.11259449,0.116360426,0.080095254,0.0004762828,-0.24282801,0.55928636,0.016883539,-0.20900857,0.40233085,-0.04034963,-0.038675174,0.34902206,0.22843643,-0.032280426,0.09403921,-0.013530588,0.21660207,-0.23690344,-0.07235606,-0.057520848,0.08953762,0.4939908,-0.09295041,-0.09039404,0.023414627,0.0327209,-0.33126768,0.2626225,-0.032130867,0.1741982,-0.32863814,0.103294075,0.07613117,-0.2807056,-0.10794331,0.18428412,-0.26165655,0.30117536,-0.04540476,-0.22177412,-0.4966839,-0.22098613,0.26545018,0.18675432,-0.19234319,0.598007,-0.1052279,0.13498588,-0.10007128,0.25208247,-0.15750757,-0.17356323,0.023415653,0.00872435,-0.63247496,0.18137193,-0.20248535,0.095504254,0.10673451,0.036293104,-0.043345988,0.19563642,-0.084419854,-0.049162664,0.41857773,0.12640427,-0.054008685,0.07017282,0.118330754,-0.36347523,-0.20766386,-0.1256823,-0.10550583,0.21005915,0.36731422,0.3888171,0.18831496,-0.28088516,-0.08346742,0.07063652,0.00079529366,-0.08887785,0.07708962,-0.096967995,-0.040299017,0.103161834,0.042171173,-0.10522455,-0.11342533,-0.102923065,-0.1634921,-0.35111022,-0.041249737,0.00675357,0.057045117,0.35065153,-0.40950602,-0.30281705,-0.1340853,-0.34557667,-0.16491869,0.15625158,0.14647998,-0.29418907,-0.0709812,-0.25980663,-0.6836793,-0.1875401,-0.09675356,0.06254538,0.034397013,0.097406775,-0.20508456,-0.05773549,-0.38663548,0.3008784,0.4109983,-0.19889748,-0.24377698,0.13594869,0.1722888,-0.15874235,-0.4566324,0.009598453,-0.009035796,0.11830745,0.020764457,-0.55563575,0.17409697,-0.15176685,-0.12892452,-0.08665064,0.023831954,-0.18990973,-0.10052489,0.38549906,0.0072036185,0.014409965,-0.42113099,-0.18217169,-0.098087184,-0.3246294,-0.36332273,-0.18258789,-0.15986583,0.12961502,-0.22787862,-0.20250271,-0.25359756,0.18466723,-0.16503514,0.19434029
drug_29,0.102719955,0.0063925725,-0.15867464,-0.028274586,0.024710542,0.091160536,0.042304203,0.5469777,-0.17274135,-0.25635603,0.037190087,-0.20821755,0.046574067,0.27408132,0.41882947,-0.5029634,-0.05232945,0.1920796,-0.05858911,0.063392796,-0.012248451,-0.11028207,-0.20130767,0.08711754,0.07410408,-0.36320037,-0.027250642,0.26811022,-0.05514565,-0.07853333,-0.21830289,-0.40473542,0.22153047,0.4106787,-0.27045795,-0.42997453,0.10240125,-0.27710086,-0.115359925,0.07211426,-0.04610884,0.35500872,0.3272353,-0.05112755,-0.1302691,0.047721345,0.17363814,0.10704153,0.15428065,0.044587456,-0.17425455,0.23970903,-0.12132091,-0.1810242,0.33720896,-0.00231331,0.030638913,0.06561516,0.19020446,0.116496794,0.3605309,0.078175426,0.23118313,-0.22765252,-0.11446247,0.07402464,0.12017467,0.64041674,-0.113987,-0.21768321,0.10904306,-0.019026889,-0.20456854,0.0045922413,0.22231303,0.36334428,-0.4551805,0.015374434,-0.007130613,-0.29323775,-0.2211754,0.21394873,-0.11315104,0.20130935,0.13842063,-0.10601226,-0.2381273,-0.22479,0.15496796,-0.15525675,-0.13668278,0.34443036,-0.0016853884,-0.08579184,-0.05946462,0.08808095,-0.034277894,-0.046004273,0.14724319,-0.118565895,-0.3818715,-0.0066095786,-0.077754095,0.23367092,-0.020527268,0.24972442,-0.21848534,-0.063641995,-0.027030218,-0.062851295,0.05162183,0.1336748,0.0055458047,0.02000668,0.15865017,-0.42532682,-0.30464852,-0.29162687,-0.107061096,0.33021817,0.5357931,0.09564524,0.27702376,-0.26727447,0.08690861,-0.27269238,-0.12008461,0.06439924,0.07520555,0.21758005,0.023902182,0.016791973,0.16981137,0.07966026,0.13219817,-0.1191229,-0.11108206,-0.359442,0.11943663,0.020882316,0.008739009,0.1422231,-0.286083,-0.116290376,-0.19918795,-0.29675943,-0.21100236,0.01853346,0.15091813,-0.08262909,0.011363615,-0.14202961,-0.5117941,-0.29523116,0.08269182,0.03029483,-0.115323484,0.030466612,-0.24771984,0.0017980351,-0.30326274,0.32131582,0.4497613,-0.06997397,-0.05314315,0.061845932,-0.03483642,-0.13240074,-0.31145215,-0.23459667,-0.033119828,0.27170378,-0.18153505,-0.37806243,0.15575293,-0.011083802,0.03279998,0.011593724,0.28381062,-0.13335416,-0.19093443,0.54723537,-0.20518507,-0.05660491,-0.3751966,0.1200721,-0.21341968,-0.235254,-0.23195696,-0.23357876,0.004916531,0.001335183,0.011554469,-0.13787207,-0.25490758,0.12664446,-0.34592307,0.018840775
drug_30,0.02092044,0.16233602,-0.17676567,0.021229263,-0.17614216,0.19596343,-0.19024733,0.48968095,-0.014162739,-0.084504105,0.09301328,-0.14484195,0.11169295,0.3917061,0.46957102,-0.22314252,-0.07540286,0.3297956,0.038822915,0.17796436,-0.20786259,-0.17579408,-0.24770184,0.118263185,0.31297946,-0.44985208,-0.11045595,0.1834431,-0.19886297,0.025902618,-0.26773125,-0.55005944,0.22450495,0.19965233,0.05995277,-0.5048669,0.14430252,-0.32914641,-0.1772447,0.24570316,-0.29957864,0.62041354,0.3782076,-0.04378098,-0.31175852,-0.15456483,0.25558507,0.07158761,0.31858432,0.06113235,0.09167008,0.051600322,-0.1885286,-0.051370498,0.41138,0.009894133,0.22365099,-0.14117755,-0.14233707,0.13372774,0.4109647,0.22549058,0.23384777,-0.28443205,-0.12535512,0.0010966376,0.03507938,0.35546744,-0.1179067,0.026339414,0.15287805,-0.11239492,-0.35351086,0.1666279,0.13133498,0.5196979,-0.3645779,0.13056442,0.032790624,-0.32343122,-0.2403584,-0.08667624,-0.16650116,0.16827895,-0.12550938,-0.060416047,-0.29371563,-0.45199835,0.1488466,-0.14614882,0.02252636,0.57590044,-0.014490875,0.14483629,-0.10118037,0.2503213,0.25975087,0.07030588,0.21474186,-0.08398671,-0.27726623,0.13289988,-0.038144033,0.010262818,-0.064932734,0.25518346,-0.17505468,-0.19884782,-0.1717077,0.14087196,-0.041095514,0.039934803,-0.060831092,0.036081325,-0.13265091,-0.3206484,-0.23987143,-0.41221422,-0.27417275,0.26405653,0.19130456,0.17183253,0.33352563,-0.24317795,0.19808733,-0.24598342,-0.38928282,0.09420116,-0.076689325,0.40701258,-0.042445075,-0.021853864,-0.10497206,0.013285568,0.30493364,-0.2502071,-0.06512486,-0.276472,0.08258049,0.011617727,0.096764006,-0.07819291,-0.08249111,-0.14762376,-0.08743578,-0.33857986,-0.21798961,0.12648,0.26753888,-0.33757433,0.026300661,-0.16474412,-0.49428305,-0.21487552,-0.005945482,-0.18504778,-0.3302481,0.03392686,-0.27961597,-0.06972527,-0.23974594,0.36096656,0.4169585,0.047866583,0.13434716,0.0052113854,-0.28059235,-0.2069296,-0.15377326,-0.22996305,-0.16373917,0.5699622,0.110293314,-0.2693479,0.17030287,-0.19279513,0.4462684,-0.09355907,0.17334382,-0.42480046,-0.012784872,0.46471286,-0.30579296,-0.234674,-0.5000289,-0.1043787,-0.094882496,-0.0060333046,-0.4405982,-0.1451814,-0.10896527,-0.12974262,0.025094353,0.08024526,-0.25702697,0.072544254,-0.20287766,0.016680418
drug_31,0.00028529673,0.1201313,-0.29090333,0.011954916,-0.018764198,0.16835262,-0.16972512,0.3732011,-0.03130866,-0.15045203,-0.087196894,-0.061204143,0.018789608,0.1927151,0.4444378,-0.19974416,-0.18954882,0.21160784,0.15236153,0.24951717,-0.16275428,-0.12362324,-0.22110626,0.08165798,0.21985698,-0.4377801,0.040997718,0.21550888,-0.14808539,-0.07496774,-0.2586732,-0.4936076,0.3697874,0.38173172,-0.07336023,-0.56145644,-0.027532617,-0.24883196,-0.051147953,0.072710216,-0.23383653,0.59240264,0.44396278,0.054273687,-0.34467122,-0.028082184,0.31975982,0.057085216,0.3893466,0.018855575,-0.16646382,0.059304822,0.010447423,-0.070677005,0.28233907,0.04209621,0.22593528,0.108652025,0.1622021,0.2309212,0.45191613,0.16156676,0.20569897,-0.23634747,-0.05909248,0.0696358,0.051671762,0.3546389,-0.34247625,-0.14697945,0.20206065,0.062386137,-0.2993905,0.065116756,0.3469487,0.42440504,-0.31089914,0.011144031,0.011596822,-0.2244561,-0.055082045,-0.083953954,-0.2002755,0.22637111,0.0052824314,-0.1803893,-0.17009167,-0.21679322,0.24427643,-0.17548923,-0.09407758,0.46128777,0.035890047,0.12573905,-0.081264794,0.12503694,0.19767916,-0.07221956,0.17115013,-0.24671319,-0.301569,0.04632609,-0.12986162,0.14736149,-0.08419612,0.30597323,-0.05593199,-0.11142242,-0.27868253,0.051377714,0.024931358,0.13388027,-0.09841382,0.09568619,0.041763775,-0.5584695,-0.32573262,-0.3090776,-0.13923459,0.2798362,0.3670548,0.16182022,0.47538143,-0.2813725,0.01957285,-0.23298846,-0.23533538,0.10185052,0.09262024,0.45134223,0.096371464,-0.06754946,-0.028283069,0.07432167,0.20837107,-0.18307361,-0.0809461,-0.30859244,-0.029037874,0.059889898,0.12422494,0.012815662,-0.07220125,-0.04451508,-0.09256788,-0.29154968,-0.221197,0.17235693,0.12594485,-0.05992658,-0.009248533,-0.04521538,-0.41696334,-0.21501523,0.066641115,-0.001135129,-0.0846934,0.043602023,-0.1816775,-0.07323622,-0.21935691,0.15074982,0.3871733,0.015191252,0.006500071,0.080997184,-0.17697959,-0.19035146,-0.076841794,-0.31599236,-0.084081404,0.3142204,-0.03374435,-0.36174384,0.12952678,-0.08234737,0.19504753,-0.04044419,0.15800802,-0.14437604,-0.03709422,0.52363664,-0.2545772,-0.098787315,-0.33490068,0.0059622386,-0.1862073,0.031017935,-0.30118868,-0.20087087,-0.010890254,0.051750116,0.15246263,-0.017273584,-0.14841315,0.05174435,-0.2388071,0.08048291
drug_32,-0.04150971,0.06917539,-0.28031537,0.033464465,0.13359599,0.04949306,-0.02853772,0.5031643,-0.18935108,-0.28965577,0.10480646,-0.15510164,-0.12627389,0.20106994,0.42200413,-0.5445125,-0.18617646,0.11958838,0.018665755,0.10922454,0.08543972,0.0059110513,-0.4440334,0.11328454,0.22882152,-0.452834,-0.03355527,0.33667853,-0.11172703,0.007949878,-0.0044946894,-0.3783598,0.11796831,0.2536357,-0.28512034,-0.3938386,0.22550559,-0.16956468,-0.07777972,0.020706102,-0.15193558,0.2854024,0.4466293,-0.32859275,-0.1483949,0.09381245,0.16952893,0.12679628,-0.06140129,0.26568776,-0.16572271,0.39724392,-0.07030086,-0.2267776,0.26792136,-0.06774784,-4.5073022e-05,0.13713263,0.29591206,0.1463644,0.19898479,-0.015837856,0.041864146,-0.19609633,-0.0642735,0.14721347,0.13660648,0.7073103,-0.13532934,-0.12205076,0.4073019,-0.087784305,-0.16383022,-0.032659937,0.26530167,0.103107065,-0.53515977,0.058009107,-0.0074215704,-0.3917644,-0.30031535,0.13927186,-0.2138145,0.12827279,0.11327075,-0.042517047,-0.22384943,-0.038958892,0.1661491,-0.12885797,0.012382523,0.21488856,0.23094144,-0.12222518,-0.07891993,0.12526841,-0.14486217,0.091931395,0.45317832,0.08068735,-0.2836506,0.091925204,-0.26696444,0.11950532,0.062469915,0.23690432,-0.3193398,-0.08513222,0.006809947,0.070786454,0.14460105,0.014854491,-0.041035544,-0.25929287,0.43015435,-0.3107596,-0.30390054,-0.3462195,-0.13214067,0.45458895,0.45663783,0.2005551,0.24300617,-0.47946918,0.05013908,-0.22613235,-0.033589676,-0.066032924,0.13608284,0.13039537,0.0730336,0.05887488,0.26688835,0.1863791,0.0008266672,-0.008217095,-0.095002025,-0.5185367,0.12974422,0.061485678,0.064856164,0.17109008,-0.34504095,-0.19549233,-0.21737933,-0.42326325,-0.24723601,-0.046862874,0.073889166,-0.002791107,0.09712864,-0.06134584,-0.45633626,-0.31185666,0.097184464,-0.15545014,-0.21118902,0.14419647,-0.27596277,0.019443678,-0.27406052,0.3853952,0.5077091,0.028025655,-0.14141038,0.027648,-0.2548423,-0.09480742,-0.17273033,-0.2227613,0.18124475,0.336694,-0.14912556,-0.25561923,0.000837697,0.054160137,0.17270075,-0.16108899,0.23541802,-0.14543523,-0.19537339,0.51665914,-0.4655991,-0.12644476,-0.4662508,0.18738131,-0.14034624,-0.1914191,-0.30065724,-0.31602436,0.15000518,-0.037395403,-0.0121825645,-0.08508641,-0.17775196,-0.051355727,-0.48410982,0.04572606
drug_33,0.4260393,0.24725951,-0.41675144,-0.07544522,0.13866797,0.27523646,-0.077037565,0.3131987,0.13915342,-0.18949945,-0.010482317,0.17763585,-0.058112904,0.18238428,0.3630444,-0.3528848,0.28299847,0.015120314,-0.049797215,-0.07048138,-0.21359311,-0.0072113285,-0.177272,0.040305674,0.06395652,-0.7283636,-0.107096896,-0.068759754,-0.34186763,-0.24615592,0.005093958,-0.4249751,0.31549585,0.3347994,-0.16622633,-0.36069858,-0.11127965,-0.12588418,0.14731927,0.16655219,0.13962288,0.34290883,0.1982877,0.082820915,-0.15654545,-0.09099193,0.14955127,-0.02858828,0.20838895,0.02667111,0.052210093,0.08779681,-0.20792446,-0.25922295,0.18366514,-0.01622874,-0.23121631,0.26479715,0.09421453,0.08754951,0.3070073,0.012336116,0.49420425,-0.45558527,-0.11715617,-0.15704241,-0.034840528,0.3205328,-0.17592949,-0.19268328,0.031085474,0.41070777,-0.3532276,0.15863448,0.23109311,0.46806875,0.04853866,-0.032977276,0.013237158,-0.09436875,-0.13040635,-0.20466606,-0.15675722,0.19009867,-0.011006145,-0.41835633,-0.09452288,-0.09476676,0.31024244,-0.17923392,-0.18579414,0.0644664,0.114518374,0.16714494,0.28670964,-0.05981042,0.016686507,-0.20105241,0.22675635,-0.25636324,-0.32459554,0.0023113429,-0.22356775,0.1768369,-0.10487505,0.20792411,-0.033751886,0.013662864,-0.10495396,-0.07031621,0.11106246,0.019257111,-0.039453283,0.24715936,-0.1865306,-0.5848221,-0.1790539,-0.23539989,0.061255023,0.21430157,0.6742278,0.07853281,0.30316445,-0.41475028,0.027298788,-0.44024482,0.13335133,-0.11557396,0.020613939,0.061418805,0.01992837,-0.0632961,0.117000245,0.15820925,0.2106979,-0.15133846,0.09846633,-0.052426722,0.020820413,0.33719227,0.082329385,-0.26109695,-0.10712918,-0.08498529,0.17530578,-0.5341099,-0.109963246,-0.07550777,0.16471107,-0.06424687,-0.00274117,0.08060832,-0.28549984,-0.11201833,-0.1641683,0.032758202,0.0083475895,-0.04582703,-0.064880215,-0.045519657,-0.17986315,0.574783,0.51222175,-0.11408704,-0.11962894,0.016198825,-0.100856274,0.28927234,0.008848746,-0.413305,0.16989027,0.191057,-0.18058158,-0.38568208,0.050395746,-0.1334548,0.14834437,-0.33245096,0.13831054,0.01575034,0.11533152,0.13931718,-0.09558978,0.13704908,-0.27515048,-0.20935567,-0.25657195,-0.224317,-0.47130385,-0.14941652,-0.08502947,0.2957352,0.12979022,0.103938706,0.08667583,0.03694514,-0.15747109,0.023034206
drug_34,0.25725302,-0.040837996,-0.33781144,0.062118262,-0.13488443,-0.046836432,-0.12405908,0.4356847,0.112626955,-0.008506154,0.030698307,-0.039065745,0.0066143665,0.15674143,0.39168575,-0.23697554,0.07590186,0.020173064,0.18044059,0.04266299,-0.2275444,0.039889608,-0.07503579,-0.012621591,0.4129279,-0.43648195,-0.14819789,0.1511932,-0.21323529,-0.1407388,-0.16920245,-0.44634846,0.32945162,0.4338544,-0.021446291,-0.58134615,-0.30626163,-0.25541562,-0.01146022,0.29890367,-0.0047776257,0.405985,0.32742485,0.124668546,-0.23921256,-0.16014689,0.29407772,0.049280908,0.23387103,0.12581274,-0.24821068,0.20730503,0.0008656271,0.054037534,0.22572516,0.00013283921,0.03959762,0.22325869,0.2165879,0.094372004,0.35197565,0.15002948,0.26265022,-0.3871339,0.0773966,-0.014267895,0.080516234,0.34688917,-0.2643662,-0.14386883,0.26258853,0.22285973,-0.45860714,0.079879746,0.14180379,0.27853897,-0.1467342,-0.08397366,-0.002428331,-0.20880759,-0.16661102,-0.08530313,-0.14481425,0.13084261,-0.013429428,-0.27574998,-0.23206675,-0.10021225,0.35461214,-0.077479064,-0.15980172,0.29268965,0.19993813,0.14967367,0.13338973,-0.074100025,-0.0016255579,-0.13693337,0.19787216,-0.35138863,-0.3482695,-0.02887459,-0.18528181,0.21757632,-0.061236355,0.08904789,0.05704138,0.051466223,-0.13163613,0.0488522,0.19568658,-0.104412414,-0.007298677,0.059505172,0.0028696198,-0.37893778,-0.18760353,-0.21254718,-0.12011646,0.2586276,0.4181743,0.12603049,0.18637298,-0.30379388,0.07409912,-0.26731718,-0.20172153,-0.20044519,0.0804563,0.22897533,-0.08476626,-0.013968149,0.009506908,0.013802006,0.18718544,-0.1376364,-0.03657822,-0.2219105,0.06589289,0.09054826,0.034351345,-0.09729887,-0.2013302,-0.07046375,0.22371747,-0.35193083,-0.095874414,0.017035833,0.12758565,-0.08793104,-0.007890326,0.11497389,-0.45115873,-0.1949124,-0.06531737,-0.08668846,-0.047866527,0.17970933,-0.049852334,-0.10736396,-0.36742806,0.335135,0.36893332,-0.090506755,0.032711387,0.08999377,-0.19748062,0.05779894,-0.0939822,-0.39339876,-0.068928026,0.33882052,-0.13566284,-0.40690407,0.09968114,-0.1119899,0.2536328,-0.2552547,0.037140977,-0.21894968,-0.055021327,0.41897082,-0.27939507,0.14851362,-0.39273056,-0.28069445,-0.36380628,-0.123624295,-0.43910933,-0.31203726,0.08520274,0.03956259,0.13395034,0.12767982,-0.13192466,-0.096917644,-0.15850124,-0.004597026
drug_35,0.12003814,0.002310026,-0.30974045,0.09704957,0.050836403,0.027223445,0.068229124,0.53001666,-0.3773836,-0.25827232,0.17345497,-0.21570389,0.21255925,0.09560798,0.24527575,-0.47737175,-0.06633077,-0.06872058,0.013272388,0.19242546,0.11391527,-0.041743997,-0.46633637,-0.027841536,0.19524363,-0.3814424,-0.1305592,0.4145596,-0.2088319,0.17753954,-0.12394039,-0.3626551,0.0075824326,0.2554642,-0.22963056,-0.32226357,0.086558074,-0.32405972,-0.049592182,0.07360513,-0.016503843,0.073237956,0.494844,-0.3959839,-0.12365085,0.17840534,0.35956246,0.13435842,-0.15024635,0.15919726,-0.15821208,0.31951535,-0.24926072,-0.2932065,0.4740008,0.06400106,-0.16488405,-0.00956531,0.3156463,0.2496691,0.4057607,0.02072859,0.07641735,-0.19113791,-0.07258087,0.18608855,0.25158992,0.70320994,-0.06614648,-0.12312687,0.5071551,0.008153806,-0.22461496,-0.16267066,0.33666864,0.11858115,-0.5046787,0.046552204,0.074934445,-0.15026592,-0.36896098,0.099738486,0.0012888996,0.085888274,0.102668196,0.08726878,-0.14519237,-0.13044414,0.30725366,-0.31235546,-0.05084766,0.17287654,0.22080597,-0.22104411,-0.17806399,0.13247684,-0.15850922,-0.08704778,0.28985894,0.047215585,-0.21725449,-0.08567712,-0.28250685,0.25105318,0.04854255,0.13299158,-0.086032964,-0.07008385,-0.110536,-0.064836375,0.06622231,0.20517194,-0.2528146,-0.19151632,0.46189404,-0.38184416,-0.52729446,-0.2447186,-0.086009815,0.3415596,0.35593736,0.05975269,0.11754737,-0.38081115,0.036044244,-0.2734615,-0.17988661,-0.06914989,0.26278508,0.098616324,0.19065762,-0.0028399527,0.22964582,0.18429014,-0.16271296,0.13410677,-0.20627917,-0.5464344,0.0664011,0.023405498,0.13340868,0.21019423,-0.29463455,-0.23922166,-0.07038487,-0.7348684,-0.14837515,-0.17707658,0.15756866,0.1084872,0.2165679,-0.19657373,-0.6554853,-0.24539657,0.33187577,-0.055528957,-0.31054333,0.15649053,-0.2589626,0.06856664,-0.45298308,0.27271798,0.4369988,0.29688302,-0.070765704,-0.12663826,-0.22614054,-0.021851398,-0.16533928,-0.48729655,0.12448944,0.137591,-0.22743152,-0.24843551,0.0052661295,-0.07175265,0.13519156,-0.008970294,0.23584732,-0.14152043,-0.18926221,0.46627834,-0.42181262,-0.2409958,-0.38991106,0.17610979,-0.2024536,-0.13653487,-0.24968493,-0.3160867,0.44408324,-0.19242078,0.0705207,-0.2708243,-0.13211948,-0.008368382,-0.2652129,-0.07373676
drug_36,-0.12504019,0.46652582,-0.04539762,-0.041595105,-0.30645698,-0.18082707,0.59225076,0.35557714,-0.06308707,0.21506594,0.02201466,-0.39601797,0.1746925,-0.4244827,0.47541407,-0.5798604,0.16369137,-0.17310058,0.16112633,0.122891635,-0.22583485,-0.094749585,-0.32188508,-0.08086858,0.07282996,-0.29035237,-0.059203178,0.45838484,-0.2618071,0.11750455,0.19501999,-0.14493966,0.44992048,0.12636033,-0.07050481,-0.5488875,-0.011257432,-0.02698074,0.26896933,0.14190078,0.30956587,0.36645553,0.33742195,0.03852805,-0.5873719,0.287149,-0.037971187,-0.026079118,-0.029391339,0.010531352,0.28405195,0.044833228,-0.12836918,-0.56945634,0.4237833,0.16738121,-0.26473016,0.52409405,-0.4113399,-0.17532668,0.47416574,-0.080904275,0.7569272,-0.089806445,-0.2579058,0.046951793,-0.1803397,0.12765148,-0.22197253,0.41864237,0.5919646,-0.051243536,-0.5848168,0.19543277,0.38376895,-0.23567462,-0.024982946,0.4234376,0.3087711,-0.16018389,-0.20333445,-0.10070986,-0.13184932,-0.15161516,-0.05852167,-0.32768846,-0.52288693,0.20392053,0.10909361,-0.2179315,0.16838875,0.27862474,0.08041132,-0.059224367,-0.12875217,0.49112764,0.04553329,-0.425026,0.21262154,0.39495033,-0.3135078,0.05291395,0.08342677,-0.03613662,0.30337083,-0.10610992,-0.61453617,-0.21064374,-0.12782751,0.17931904,0.10756966,0.30964217,-0.40527526,0.55133986,0.370978,-0.20322996,0.16179433,-0.5703465,0.3278113,0.22460277,-0.16569652,-0.18719208,-0.11336979,-0.3750895,0.1640961,-0.095068686,-0.37717658,0.39720666,-0.1409654,0.25110134,-0.2676447,0.10055388,-0.10349174,0.12608369,-0.40282327,-0.18321566,-0.31633922,-0.21058719,-0.10588032,-0.025685987,0.2035576,-0.044922043,0.14164363,-0.55973667,0.2604029,-1.2166635,-0.6827179,0.4954108,-0.08517277,-0.22247308,0.47981998,-0.32709858,-0.95730966,0.09801695,0.3563311,-0.023949593,0.20848736,-0.48115602,-0.66950256,-0.107857496,-0.10597938,0.38834366,0.24421974,0.007217277,-0.28551376,-0.10730021,-0.69756454,0.10729523,-0.022688095,-0.05167004,0.32902652,0.14579868,0.50237817,-0.017001612,0.013748128,-0.27185032,0.24674357,-0.18618292,0.034634452,0.24927449,-0.5881188,0.53967863,0.010557379,-0.24856728,-0.33112434,-0.019254984,0.70149255,-0.39452857,-0.23739609,0.35043505,0.2838072,0.109584935,-0.14947586,-0.23866868,0.19659787,0.05548189,0.23658119,0.37353727
drug_37,0.1886994,0.12425834,-0.08557585,0.22075927,0.06830855,-0.21936588,0.731843,0.6866769,0.02093836,-0.20401978,-0.1386524,-0.31953782,0.37333465,-0.049881335,-0.08135092,-0.17923172,0.29617944,0.30705845,-0.13035193,0.1264713,-0.35144305,-0.194274,-0.44738474,-0.13490848,0.16351436,-0.3090211,0.023380753,0.3605553,-0.25595856,-0.24431059,-0.8179603,-0.37308076,-0.20673682,0.12238348,-0.30712724,-0.3401816,0.06554296,-0.09801996,0.27277753,0.08094976,0.067616776,0.31527388,0.23451976,-0.436536,-0.63081056,0.051805664,0.066982575,-0.39776137,-0.28286755,-0.14423642,0.24101372,0.7352256,-0.1974025,-0.4906604,0.29739255,0.098513834,-0.6146965,0.90102875,-0.1513809,0.061963584,0.3772776,0.06506767,0.5761837,-0.23611157,0.030490216,-0.35178012,-0.50811356,0.6440503,0.26949102,0.13066547,0.32739854,-0.23779543,-0.48746026,0.23281345,-0.040450674,0.28804454,-0.2978125,0.148538,0.8803,0.13840538,-0.17328605,-0.5569862,0.04291629,-0.40051013,-0.09314677,-0.4494185,-0.755161,0.039153095,0.47687,0.28068432,-0.050996616,-0.11961372,0.21027113,0.5159343,0.33951086,-0.05387338,-0.13183558,-0.6366195,0.1800318,0.11131545,0.26313576,-0.4228404,-0.035471074,0.23288938,0.09010094,-0.28081882,-0.3605517,-0.4912389,0.1699276,-0.28831503,0.15317786,0.57088524,-0.66867626,0.3465362,0.19225723,-0.18479435,-0.3419818,0.27729875,0.03908273,0.014018034,-0.3598741,0.16189767,0.328407,-0.51610595,-0.072106615,-0.098275706,-0.43993443,0.6700241,0.14783652,0.034989044,0.4059023,-0.36980736,-0.109691136,0.051860645,-0.11276978,-0.18777557,-0.35991707,-0.20847338,-0.82344645,0.0728272,0.09121724,0.41848117,0.20899038,-0.58418345,0.60274315,-0.9638911,-0.5785826,0.075653575,0.18789351,0.15327103,0.25600022,-0.560797,-1.2180365,-0.34711426,0.30609137,-0.10454038,0.2721453,-0.2714999,-0.2343768,0.060583398,-0.13458782,0.48176828,0.80398756,0.6049182,-0.5875206,-0.47006032,-0.0041366518,0.06631457,-0.23463444,-0.3661301,0.5063897,0.07921541,-0.118449256,-0.037837118,-0.06568665,-0.5996897,0.07072538,-0.034600306,0.16475569,0.27246514,0.08197039,0.52762485,-0.120315515,-0.14854093,-0.5187342,0.04690417,0.66794634,-0.040001176,-0.6593789,0.098995864,0.086694695,0.24995674,0.02666071,0.09212351,-0.06803238,0.33577412,0.32256815,0.10485253
drug_38,-0.25920555,-0.5560535,-0.091348514,0.014843818,0.038326774,-0.19275185,0.24966423,0.34772435,-0.049697734,-0.22911468,-0.03812954,-0.29098508,-0.18948539,-0.122142844,0.25939214,-0.14720006,-0.09620871,0.24328843,0.22644395,0.2429365,-0.19415966,-0.016162405,0.017447595,0.3568466,0.2498514,-0.2904938,0.0184112,0.24040721,-0.09440238,-0.0064795283,-0.24347521,-0.5300246,0.251122,0.597713,0.18889412,-0.52155,-0.030132934,-0.19691369,0.25128642,-0.0036804308,0.47788072,0.35167062,0.24428743,-0.058054518,-0.24489538,-0.084794424,-0.16671771,0.27982497,-0.012010881,-0.061316215,-0.029871756,0.8445032,0.28686768,0.16254468,0.3709785,-0.06661843,0.08994439,0.8327484,-0.025831124,-0.07970348,0.35604373,-0.1325157,-0.07840486,-0.49173617,-0.043088198,0.17950156,0.14361762,0.17662229,-0.10885808,0.16976704,0.2951595,0.13173412,-0.50401336,0.04077098,0.16018252,-0.2452323,-0.03530576,0.00881741,0.41860935,-0.33705124,0.21667235,-0.013859157,-0.042152133,-0.15464714,0.33688682,-0.2944617,-0.45173606,-0.32482612,0.22413355,-0.18075147,0.40074682,0.33812055,-0.03510076,0.37081015,0.1859619,0.4935289,0.0034345947,-0.21990894,0.07222029,0.2999647,-0.33908635,0.06321142,-0.34051827,0.22142063,0.008889314,-0.26637766,-0.11371732,-0.0237363,-0.23251063,0.28402993,0.34621504,0.32807192,0.022093643,0.19285402,0.46378973,-0.48914555,-0.12478559,0.15501323,-0.18044034,0.41026318,0.060016293,0.17428969,0.45939213,-0.29614207,-0.27895254,0.12925158,-0.28586602,0.35418475,0.12887539,0.16385987,0.2920472,-0.13564156,-0.28940994,0.20488992,-0.25029486,-0.11891293,-0.1777758,-0.07949689,0.020910157,-0.13950956,-0.21249448,0.26679245,-0.23400305,-0.2513822,-0.12097047,-0.59875566,-0.27962705,0.1678748,0.26620522,0.07443337,0.2978386,-0.53896594,-0.45453987,-0.2842324,-0.014033965,-0.206659,0.10553496,-0.26469755,-0.099310264,-0.29630888,-0.08432367,0.44259232,0.5109546,-0.123074405,-0.46499178,-0.052374817,0.021501891,-0.11633115,-0.48635602,0.097161196,0.04303472,0.3171093,-0.11285203,-0.73497033,-0.00022413184,-0.0562339,0.13672255,0.27822036,-0.20758088,0.014620983,0.098921694,0.5153796,-0.2722771,-0.058428712,-0.4432102,-0.23208433,0.17084584,-0.078778215,-0.37384352,-0.019411689,-0.03719403,0.29683167,-0.2883923,-0.18832342,0.019167295,0.2904881,-0.09177111,0.17557104
drug_39,0.1784398,-0.05522869,-0.2292658,0.09017408,0.16713914,0.073692314,0.13924219,0.35459155,-0.056807972,-0.38465825,0.02491084,-0.06290601,-0.13230842,0.19283605,0.32900625,-0.33911672,-0.09298022,0.32871372,-0.014307207,-0.022286726,-0.0027601796,0.002951704,-0.25676104,0.09377998,0.17732914,-0.26391846,-0.048957594,0.34057495,-0.00060264237,-0.21002337,-0.12248414,-0.6603867,0.2746928,0.34663963,-0.20601402,-0.35525993,-0.019201301,-0.22476852,-0.1840779,-0.008815531,0.24382047,0.3494234,0.37666938,-0.21058153,0.0607457,-0.12552175,0.00025502665,0.20328279,-0.108153254,-0.10678951,-0.1215104,0.49428728,-0.1756542,0.091065556,0.18544054,0.058428843,-0.0840768,0.1325896,0.07588416,-0.05989883,0.28107998,-0.032864444,0.21117474,-0.2717356,0.12905589,0.0925051,-0.013709293,0.34791118,-0.15056552,-0.17616417,-0.07802557,-0.007887986,-0.45384273,0.024533432,0.07828272,0.25147703,-0.30273497,-0.03769346,0.08940009,-0.41150048,-0.09342021,0.011391558,-0.097984895,0.22665094,0.16125572,-0.14046633,-0.44524753,-0.2922263,0.20398715,0.06895166,0.07457139,0.46385586,-0.025325943,0.07996841,0.035807177,0.16422836,-0.07523808,-0.04592601,0.0076661906,-0.017102083,-0.43208683,0.124858506,-0.19854766,0.1744911,-0.07647912,0.083491296,0.021075545,0.27121025,-0.10385487,-0.10827331,0.18020633,0.16941532,-0.012580193,-0.08144656,0.17696163,-0.2644981,-0.37500915,-0.18604209,0.03361344,0.09841068,0.38848543,0.23057084,0.33774373,-0.020556908,-0.14755958,-0.058159813,-0.20383489,0.007560996,-0.12539108,0.09203579,-0.032603774,0.2556029,0.122176595,0.053636454,-0.12891988,-0.121474154,-0.17023437,-0.0966844,0.10655567,0.07319179,0.08885543,0.16693035,-0.2337866,-0.10183581,0.002179413,-0.50014126,-0.30442974,0.07082876,0.15586789,-0.066497535,0.02240316,-0.18242481,-0.51801556,-0.43125385,-0.06756513,0.03042219,-0.17499557,-0.015311458,-0.34494215,-0.028843574,-0.3367236,0.4096785,0.5892954,-0.20382467,-0.28806433,-0.028559765,0.20954312,-0.13104394,-0.41065168,-0.21330412,-0.018285315,0.104139835,-0.08552009,-0.63212985,0.1611199,-0.30564955,0.0003786701,-0.082817435,-0.08260637,-0.24607089,-0.111380376,0.47748876,-0.018760156,-0.09685357,-0.54353386,-0.10152722,-0.28662363,-0.057359155,-0.4567036,-0.1261766,-0.25183856,0.1741793,-0.2776819,-0.28771576,-0.22689994,0.29440126,-0.4351274,0.086791016
drug_40,-0.0030781634,0.25961173,-0.38422766,0.07226551,0.14796309,-0.29188874,0.1366873,0.43127552,-0.09472205,0.698428,0.17089993,-0.47779652,-0.013168435,-0.09787952,0.31016183,-0.35234037,0.24099275,-0.035340205,-0.046526175,0.4755779,0.30937785,-0.26465952,-0.3082722,0.28597996,0.26830232,-0.52340275,-0.07665886,0.37777203,-0.4736871,0.0500288,-0.46118036,-0.25174296,-0.08496158,0.24954471,-0.42565647,-0.42344064,0.074141905,-0.07049039,-0.014212646,0.26797256,0.1971551,0.47279504,0.29101184,0.013896643,-0.685414,-0.0038690395,0.12161812,-0.29659504,0.13166447,-0.13463692,-0.07948233,0.53028584,0.43895364,-0.54337144,0.6471444,0.54716504,0.08023394,0.27755767,-0.367407,0.053827144,0.6859662,-0.12167218,0.5599504,-0.60310614,-0.268056,0.115343966,-0.5075681,0.05242786,0.23074535,0.6824193,0.5681858,-0.03785346,-0.23742281,0.2156875,0.17201911,-0.277957,-0.3070745,0.5323091,0.77869666,0.48037168,-0.4961944,-0.021110622,-0.034447275,-0.5289256,-0.19229116,0.21979795,0.15963787,0.26315665,0.22986655,-0.5800969,-0.15771826,0.58085036,0.42086208,0.49457356,-0.018420404,0.72976154,-0.1982688,-0.24332364,0.3813838,0.73886245,0.001362107,0.15383215,0.07846798,0.34987643,0.056557655,-0.21099438,-0.501329,-0.40185943,-0.023004403,0.3487021,0.105452165,0.47674817,-0.17062679,1.0503433,0.5686253,-0.5525183,0.22188492,-0.05710041,0.26167026,0.3566991,0.52500856,0.21585238,0.2498997,-0.7207491,0.39830914,0.013676336,-0.23805903,0.69957155,0.40931055,0.21840924,0.11428906,-0.7619186,0.42767817,0.1050181,-0.7895696,-0.37658608,-0.46332076,-0.5115138,-0.15678562,0.38969758,-0.07559302,0.17278637,-0.14104655,-0.13446207,0.31587064,-1.0015855,-0.21629307,-0.29423627,-0.04402236,-0.1567413,-0.23600589,-0.16779102,-0.81372833,0.023434877,0.30154347,-0.0334447,-0.33913267,-0.47490978,-0.19389218,0.058852315,0.14855775,0.43379354,-0.010535004,0.122622125,0.10015273,-0.084532894,-0.7460036,-0.5631772,-0.07549786,0.046530657,0.09193574,0.5296079,0.05950112,-0.15801035,-0.31490502,-0.28594893,-0.15704592,0.23027208,-0.19557643,-0.1791994,-0.6445253,0.81325734,-0.18312864,-0.1945902,-0.44380152,0.041519362,-0.20746809,-0.06699064,-0.8291065,-0.06877845,0.19617777,0.15423496,-0.00448625,0.121416256,-0.37316322,0.54437315,0.2879842,-0.03712001
drug_41,0.47978514,0.13811742,-0.20533442,-0.16894777,0.07019699,0.070245475,0.038641404,0.12085853,0.13984837,0.029472863,-0.052851766,-0.094710775,-0.0633778,0.13531034,0.2670603,-0.3881379,0.3174946,0.14103729,0.059545495,0.03025403,-0.19902414,0.09944459,-0.23535033,0.17594756,0.0404304,-0.6121429,-0.051784247,-0.016855747,-0.1832485,-0.15327127,-0.16695163,-0.276516,0.40258145,0.45211956,-0.18645212,-0.44096196,-0.17481047,-0.1423785,0.06289946,0.1409373,0.12333126,0.33573148,0.11121562,0.24383157,-0.042109225,-0.21892206,-0.0021125223,0.033764906,0.18568294,-0.08152684,-0.017415933,0.10334169,-0.118849404,-0.30675712,0.28685123,0.14383768,-0.20057693,0.17091241,0.03149144,-0.14406894,0.1715496,-0.034290828,0.50038487,-0.6124591,-0.16042876,-0.22632118,-0.07339243,0.21153845,-0.07954536,0.06552065,-0.06389985,0.3076529,-0.3848264,0.11256212,0.2650617,0.35482174,0.10995806,0.09074013,0.05322318,-0.10384781,-0.16809432,-0.10933386,-0.2841146,-0.08818984,-0.055234864,-0.52366686,-0.1306967,-0.019625265,0.27801648,-0.35954747,-0.13332549,-0.15871057,0.13961636,0.41257152,0.5182677,-0.08837754,-0.0827005,-0.09444752,0.1754515,-0.13543811,-0.27706134,0.02152691,-0.035811942,0.31835,-0.070529595,0.14519313,-0.23255265,0.026447384,-0.21695082,-0.14772639,0.16090094,0.100987524,0.12666684,0.46700683,-0.12114086,-0.4720094,0.041172195,-0.17426589,0.018502614,0.075113736,0.48809263,0.09147955,0.12941547,-0.38190785,0.18342134,-0.2926293,0.1437678,-0.027587365,-0.04610746,0.06706172,-0.0391834,-0.11959297,0.13641366,0.11481987,-0.043592416,-0.16973323,0.024044978,-0.13337523,-0.17148702,0.49597678,0.11559371,-0.32497236,-0.04228587,-0.076914854,0.5022151,-0.62874186,-0.11172766,-0.002308095,0.10062029,-0.129956,0.07340836,0.025723498,-0.24892052,-0.22705558,-0.028184587,0.09967314,-0.015321887,-0.01045213,-0.028550366,-0.009459234,-0.16057643,0.45978856,0.4231166,-0.0484264,-0.21555129,-0.0010034665,-0.05489681,0.38025743,-0.006139373,-0.36999306,0.20740311,0.1348124,-0.033925045,-0.40299278,-0.08239222,-0.3025303,0.13775194,-0.18918996,-0.096598335,-0.07092603,0.09321865,0.32379246,-0.030610314,0.19010289,-0.3088083,-0.120325774,-0.20484044,-0.13269117,-0.48841012,0.050369993,-0.34470826,0.28625,0.12217966,0.30463636,-0.14133917,0.12110305,-0.1993171,-0.09701476
drug_42,-0.02633043,-0.43716025,-0.34713387,0.056574512,-0.02502378,-0.095931835,0.24186099,0.51683724,-0.06691508,-0.22190039,0.06039282,-0.18932807,-0.19259967,0.06278183,0.2086509,-0.17091927,0.060306218,0.32257995,0.13880874,0.21760179,-0.0876893,0.13627182,0.050260216,0.28010485,0.14257933,-0.38384587,-0.15614313,0.20838697,-0.074448645,-0.009743925,-0.07955099,-0.5727526,0.25538194,0.63835025,0.11888346,-0.32146025,-0.004477549,-0.22589613,0.29501796,0.069642775,0.37446228,0.34374765,0.2930009,-0.053754117,-0.16484945,-0.1318316,-0.08364861,0.3202207,0.019269813,-0.113587946,-0.22263609,0.48383203,0.18366136,-0.0037841904,0.30790338,-0.01820809,-0.19624312,0.41201335,0.14846791,-0.056518868,0.1941111,0.037503194,0.025667382,-0.49377856,0.09388466,0.03934998,0.21201059,0.33944973,-0.11049754,0.046466995,0.16191013,0.24320008,-0.40391845,-0.08860503,0.036276482,-0.14724633,-0.20420554,-0.048587292,0.20897287,-0.36406034,-0.087231174,0.07535554,-0.15625694,0.106060766,0.19719547,-0.28750744,-0.50464094,-0.42195758,0.31329542,-0.10447711,0.30759582,0.341901,-0.055984836,0.3356279,0.0377466,0.29958776,0.08240182,-0.1487071,0.079951406,0.09332,-0.3964783,0.17161411,-0.35950303,0.15271938,-0.024250964,-0.13291958,-0.077362634,0.08556735,-0.13249071,0.110565074,0.2044511,0.17971314,0.07777346,0.0541717,0.5032697,-0.35662952,-0.2973017,-0.034377232,-0.15250228,0.2177083,0.18326962,0.2503744,0.29709694,-0.32743666,-0.20485565,0.09452755,-0.34488976,0.0368063,0.07449357,0.06422157,0.10577775,0.13375424,-0.099065,0.27660316,-0.25956833,-0.02038491,-0.06444492,-0.117066815,-0.046663836,0.03740722,-0.07704367,0.26944104,-0.3006083,-0.0750772,-0.22214852,-0.42276353,-0.2734377,0.14085871,0.32732037,-0.006858744,0.2295852,-0.41608584,-0.32630372,-0.100113496,0.026057761,-0.038889967,-0.032064106,-0.06048839,-0.21523422,-0.19410165,-0.1301468,0.33308935,0.3805687,-0.005848639,-0.28173947,0.13282697,0.21086808,-0.17123131,-0.4188755,-0.04600192,-0.029628824,0.30992433,-0.13872743,-0.8602478,0.0754924,-0.04260503,0.067941085,0.09088633,-0.13408627,-0.08084818,0.094185084,0.48087135,-0.085860595,-0.13162881,-0.49211383,-0.12572691,-0.15021992,-0.07114876,-0.4208838,0.11164332,-0.18642214,0.17886077,-0.30594957,-0.22406137,-0.07856906,0.18746671,-0.16539283,0.10658691
